{"learner":{"attributes":{"scikit_learn":"{\"_estimator_type\": \"regressor\"}"},"feature_names":["Gender","Age","Height","Duration","Heart_Rate","Body_Temp"],"feature_types":["int","int","float","float","float","float"],"gradient_booster":{"model":{"gbtree_model_param":{"num_parallel_tree":"1","num_trees":"100"},"iteration_indptr":[0,1,2,3,4,5,6,7,8,9,10,11,12,13,14,15,16,17,18,19,20,21,22,23,24,25,26,27,28,29,30,31,32,33,34,35,36,37,38,39,40,41,42,43,44,45,46,47,48,49,50,51,52,53,54,55,56,57,58,59,60,61,62,63,64,65,66,67,68,69,70,71,72,73,74,75,76,77,78,79,80,81,82,83,84,85,86,87,88,89,90,91,92,93,94,95,96,97,98,99,100],"tree_info":[0,0,0,0,0,0,0,0,0,0,0,0,0,0,0,0,0,0,0,0,0,0,0,0,0,0,0,0,0,0,0,0,0,0,0,0,0,0,0,0,0,0,0,0,0,0,0,0,0,0,0,0,0,0,0,0,0,0,0,0,0,0,0,0,0,0,0,0,0,0,0,0,0,0,0,0,0,0,0,0,0,0,0,0,0,0,0,0,0,0,0,0,0,0,0,0,0,0,0,0],"trees":[{"base_weights":[-1.8858853E-1,-4.5605762E1,6.0451134E1,-6.829655E1,-2.2591635E1,2.9676758E1,8.855205E1,-7.726328E1,-5.8346134E1,-3.521002E1,-9.814739E0,1.9436705E1,4.5402477E1,7.330369E1,1.0868474E2,-8.1802025E0,-7.22768E0,-6.3126392E1,-5.3525284E1,-4.207244E1,-2.7217846E1,-1.754558E1,2.081864E0,1.2330388E1,3.1671238E1,3.635538E1,5.7298286E1,6.2111427E1,8.7827484E1,9.899636E1,1.28054E2,-6.620407E0,-5.883279E0,-5.9673977E1,-4.9677048E1,-4.591053E1,-3.4528103E1,-3.1600166E1,-2.14561E1,-2.2935982E1,-7.049739E0,-4.7685256E0,1.0089823E1,5.2148323E0,2.2081526E1,2.04488E1,4.003598E1,2.9719929E1,4.9360912E1,4.6616753E1,6.688735E1,5.1871277E1,7.486436E1,7.720113E1,1.0127105E2,8.105663E1,1.08867195E2,1.4416452E2,1.08383354E2,-6.240422E0,-5.3518453E0,-5.218311E0,-4.36068E0,-4.957429E1,-4.0314167E1,-3.8541985E1,-2.7677647E1,-3.8067558E0,-2.7630848E1,-2.4773977E1,-1.3335197E1,-3.1414885E1,-1.903361E1,-1.6213907E1,-2.886698E0,-1.2575472E1,2.589005E-1,4.5943317E0,2.131264E1,-2.185342E0,1.315474E1,1.4498835E1,2.7886757E1,1.3237958E1,2.5979378E1,2.47635E1,4.4011738E1,2.570238E1,3.9664803E1,5.7412E1,4.173077E1,4.1105183E1,5.770345E0,7.8224846E1,5.720013E0,3.4882557E1,5.7894047E1,6.005025E0,7.986915E1,8.577382E1,6.700447E1,1.1426509E2,8.952159E0,7.601031E1,9.19714E0,1.0027573E1,1.2312188E1,1.2255739E1,1.5549205E1,9.5226755E0,1.1952956E1,-5.3788567E0,-4.499006E0,-4.4079838E1,-3.5933206E0,-4.4479756E0,-3.6606221E0,-2.8646657E0,-1.9734538E0,-3.0465225E1,-2.254517E1,-2.6356403E1,-1.7110579E0,-1.8553965E1,-8.777243E0,-3.777312E1,-2.5726418E1,-2.3955523E1,-1.31314E1,-1.9637512E1,-1.1823053E1,-1.1256166E1,1.0833498E0,-1.532221E1,-4.8487687E0,-6.0525284E0,4.571215E0,1.1691378E0,9.99807E0,2.751823E1,1.1617018E1,-1.4928316E1,6.101659E-1,8.932299E0,1.8130796E1,1.0093374E1,2.0512197E1,2.321124E1,3.298948E1,1.0630748E1,2.3479526E0,3.2010704E1,1.9029858E1,1.6126785E0,3.0461576E1,3.901542E1,5.328287E1,1.9677908E1,3.044091E1,3.3794308E1,4.6095304E0,4.0679526E0,6.1283503E0,3.244175E0,4.5036864E0,3.47663E0,4.3992248E0,6.1944337E0,8.738555E0,1.9311314E1,3.919264E1,5.2010303E1,6.478303E0,7.2084274E0,8.521654E0,6.964694E1,9.378372E1,5.6100183E0,7.130091E0,9.481057E0,1.214537E1,6.561249E0,7.964358E0,-4.74777E0,-3.7823052E0,-3.3956838E0,-2.7771218E0,-2.4471228E0,-1.5174919E0,-2.8728773E1,-2.1903563E1,-2.1017025E0,-1.4709724E0,-1.0890673E1,-2.4099915E-1,-4.05142E0,-3.0602872E0,-2.8891256E0,-2.0528276E0,-2.7364864E1,-2.0100504E1,-1.7000866E1,-9.243361E0,-2.1757638E0,-1.1299165E0,-1.4161338E1,-5.576658E-1,-1.4904698E0,-5.8439183E0,-3.1777413E0,4.9344425E0,-1.7913729E1,-8.85287E0,-8.5841477E-1,-1.2772642E-1,-1.2124631E1,-1.3821822E0,2.055095E0,1.18360815E1,-2.2116396E0,6.387473E0,4.74605E0,1.5091887E1,1.859135E1,3.391608E0,8.972303E0,1.5609926E0,-1.9644537E1,-6.387143E-1,-4.704926E0,5.5096993E0,4.0560927E0,1.322406E1,1.0794756E0,1.971299E1,3.8174634E0,1.4966944E1,1.0880848E0,2.3004944E0,1.8268768E1,2.5623145E0,2.7625222E0,3.5654857E0,4.294756E-1,1.2831112E1,2.5359328E0,4.1052375E0,1.5476083E0,2.1938798E0,3.5844426E0,2.3847737E0,3.2821346E1,4.596418E0,4.477192E0,5.914756E0,1.6226593E1,2.5147557E0,2.480712E1,3.3872907E0,2.7772129E0,3.9067543E0,1.2064471E0,2.3957772E0,3.401905E0,4.333484E0,4.378856E0,5.528885E0,5.9541497E0,8.22104E0,8.248819E0,1.0293478E1,-3.0394027E0,-2.1047628E0,-2.3432968E0,-1.504223E0,-1.2282306E0,-7.117347E-1,-2.9658352E1,-1.4827371E0,-2.2116983E0,-1.7052764E0,-2.1303991E1,-1.0982536E1,-1.2139385E1,-6.828463E0,-1.6356783E0,-9.4809836E-1,-1.4412902E-1,-1.0493325E0,-8.657614E-1,-1.5944204E0,9.438331E0,-1.7539306E0,-2.0816462E0,-1.236103E0,-1.0753711E0,-6.7270046E-1,-1.5280184E0,-5.571892E-1,-4.9204764E-1,7.9608154E-1,-2.1116073E0,5.848587E0,7.064471E-1,1.454619E0,-4.5693297E0,4.410236E-1,2.18854E-1,8.241267E0,-4.380774E-2,1.195777E0,8.496232E-1,1.901698E0,1.315538E0,2.2337198E0,1.1246289E0,5.882653E-1,-2.5909994E0,-1.2349921E0,-1.056933E1,1.7033349E0,1.5152537E0,8.345052E0,-6.433478E-1,8.431254E0,6.472736E-1,1.5481135E0,1.6301186E0,2.218192E0,-5.515064E-1,9.679524E-1,6.9158524E-1,1.8225222E1,1.3294756E0,2.2722738E0,8.2103986E-1,1.5949773E0,2.3279524E0,3.486405E0,1.4411645E0,1.9193503E0,1.963897E0,2.8156083E0,-3.3814285E0,-2.6824758E0,-2.3642328E0,-1.6483021E0,-1.6888384E0,-7.166948E-1,-1.4520477E0,-9.964124E-1,-8.85287E-1,-4.5195365E-1,-2.774242E-1,2.5190166E-1,2.7020407E-1,1.4006966E0,-4.753711E-1,2.9027602E-2,-3.8714297E-2,2.3371986E-1,-6.385446E-1,2.5169784E-1,2.6795238E-1,7.5160813E-1,-6.847628E-1,-2.5639185E-1,1.1173342E0,5.3461903E-1,-1.368181E0,-5.753867E-1,-2.316355E-1,4.64713E-1,-1.493325E-1,2.7505285E-1,1.0394218E0,5.9868103E-1,-3.2538098E-1,2.673342E-1,4.6500784E-1,1.1146191E0,-1.7537107E-1,7.0083484E-2,1.1246289E0,2.1152372E0],"categories":[],"categories_nodes":[],"categories_segments":[],"categories_sizes":[],"default_left":[0,0,0,0,0,0,0,0,0,0,0,0,0,0,0,0,0,0,0,0,0,0,0,0,0,0,0,0,0,0,0,0,0,0,0,0,0,0,0,0,0,0,0,0,0,0,0,0,0,0,0,0,0,0,0,0,0,0,0,0,0,0,0,0,0,0,0,0,0,0,0,0,0,0,0,0,0,0,0,0,0,0,0,0,0,0,0,0,0,0,0,0,0,0,0,0,0,0,0,0,0,0,0,0,0,0,0,0,0,0,0,0,0,0,0,0,0,0,0,0,0,0,0,0,0,0,0,0,0,0,0,0,0,0,0,0,0,0,0,0,0,0,0,0,0,0,0,0,0,0,0,0,0,0,0,0,0,0,0,0,0,0,0,0,0,0,0,0,0,0,0,0,0,0,0,0,0,0,0,0,0,0,0,0,0,0,0,0,0,0,0,0,0,0,0,0,0,0,0,0,0,0,0,0,0,0,0,0,0,0,0,0,0,0,0,0,0,0,0,0,0,0,0,0,0,0,0,0,0,0,0,0,0,0,0,0,0,0,0,0,0,0,0,0,0,0,0,0,0,0,0,0,0,0,0,0,0,0,0,0,0,0,0,0,0,0,0,0,0,0,0,0,0,0,0,0,0,0,0,0,0,0,0,0,0,0,0,0,0,0,0,0,0,0,0,0,0,0,0,0,0,0,0,0,0,0,0,0,0,0,0,0,0,0,0,0,0,0,0,0,0,0,0,0,0,0,0,0,0,0,0,0,0,0,0,0,0,0,0,0,0,0,0,0,0,0,0,0,0,0,0,0,0,0,0,0,0,0,0,0,0,0,0,0,0,0,0,0,0,0,0,0,0,0,0,0,0,0,0,0,0,0,0,0,0],"id":0,"left_children":[1,3,5,7,9,11,13,15,17,19,21,23,25,27,29,-1,-1,31,33,35,37,39,41,43,45,47,49,51,53,55,57,-1,-1,59,61,63,65,67,69,71,73,75,77,79,81,83,85,87,89,91,93,95,97,99,101,103,105,107,109,-1,-1,-1,-1,111,113,115,117,-1,119,121,123,125,127,129,131,133,135,137,139,141,143,145,147,149,151,153,155,157,159,161,163,165,-1,167,-1,169,171,-1,173,175,177,179,-1,181,-1,-1,-1,-1,-1,-1,-1,-1,-1,183,-1,-1,-1,-1,-1,185,187,189,-1,191,193,195,197,199,201,203,205,207,209,211,213,215,217,219,221,223,225,227,229,231,233,235,237,239,241,243,-1,245,247,-1,249,251,253,255,257,259,-1,-1,-1,-1,-1,-1,-1,-1,-1,261,263,265,-1,-1,-1,267,269,-1,-1,-1,-1,-1,-1,-1,-1,-1,-1,-1,-1,271,273,-1,-1,275,-1,-1,-1,-1,-1,277,279,281,283,-1,-1,285,-1,-1,287,289,291,293,295,-1,-1,297,299,301,303,305,307,309,311,313,-1,315,-1,317,-1,319,321,323,325,-1,327,329,331,-1,-1,333,-1,-1,-1,-1,335,-1,-1,-1,-1,-1,-1,337,-1,-1,-1,339,-1,341,-1,-1,-1,-1,-1,-1,-1,-1,-1,-1,-1,-1,-1,-1,-1,-1,-1,-1,-1,343,-1,-1,-1,345,347,349,351,-1,-1,-1,-1,-1,353,355,357,-1,-1,-1,-1,-1,-1,-1,359,361,363,-1,-1,365,-1,-1,367,-1,-1,-1,-1,-1,-1,-1,-1,-1,-1,369,371,373,375,377,379,-1,-1,-1,-1,381,-1,-1,383,-1,-1,-1,-1,-1,-1,-1,-1,-1,-1,-1,-1,-1,-1,-1,-1,-1,-1,-1,-1,-1,-1,-1,-1,-1,-1,-1,-1,-1,-1,-1,-1,-1,-1,-1,-1,-1,-1,-1,-1,-1,-1,-1,-1,-1,-1,-1,-1,-1,-1,-1,-1],"loss_changes":[2.4503096E7,2.654932E6,3.292215E6,2.23991E5,4.0706688E5,2.9219612E5,6.03251E5,2.4505E4,2.469E4,6.856375E4,1.15643734E5,9.559397E4,7.5082375E4,1.792065E5,1.47958E5,0E0,0E0,4.113E3,1.154025E4,1.8162625E4,1.4219375E4,4.294983E4,2.7257502E4,4.845417E4,3.7199812E4,3.3914938E4,2.8429062E4,8.034825E4,6.2467E4,9.29965E4,7.3742E4,0E0,0E0,5.42375E2,3.55075E3,7.207625E3,5.3675312E3,7.4966562E3,6.6212266E3,1.604525E4,9.872408E3,1.0521945E4,1.4025631E4,2.3883969E4,1.2581359E4,6.6351016E3,1.2936344E4,9.927906E3,6.0201875E3,6.73275E3,1.30981875E4,3.4917688E4,1.633425E4,1.8641E4,2.244275E4,4.465625E3,3.27225E4,1.814625E4,7.82825E3,0E0,0E0,0E0,0E0,2.7383125E3,1.4350625E3,3.8421875E1,1.2739844E2,0E0,2.34025E3,1.7561016E3,1.6687383E3,4.706703E3,9.765828E3,9.8546094E2,5.993089E3,2.1541465E3,4.491234E3,2.8571829E3,4.1928516E3,7.52558E3,3.9562266E3,3.236875E3,3.1946875E3,1.8331436E3,3.4984922E3,1.9693848E3,6.3516562E3,5.053328E3,1.3490156E3,1.6529219E3,8.114922E2,3.5553125E2,0E0,5.1759688E3,0E0,5.753125E3,7.3719375E3,0E0,2.59925E3,1.2586125E4,2.1841875E3,2.190375E3,0E0,3.655625E2,0E0,0E0,0E0,0E0,0E0,0E0,0E0,0E0,0E0,2.0265625E2,0E0,0E0,0E0,0E0,0E0,2.98625E2,7.5009766E2,9.447344E2,0E0,2.2246094E1,5.5239355E2,1.7525781E2,8.2172656E2,1.9208516E3,2.249996E3,5.320039E2,4.7604932E2,1.058209E3,2.0340929E3,1.1323477E3,3.759225E2,1.8832825E3,1.7670446E3,1.7077617E3,1.533543E3,1.9395352E3,1.8730615E2,1.4052451E3,4.5571387E3,2.2065332E3,8.202285E2,2.2979932E3,1.0461465E3,6.047656E2,1.1596094E2,8.371489E2,0E0,2.0260547E3,1.5668555E2,0E0,1.776289E2,3.7424062E3,3.9660938E2,1.2909141E3,1.2672344E3,3.1229297E2,0E0,0E0,0E0,0E0,0E0,0E0,0E0,0E0,0E0,4.8542188E2,1.3304688E2,1.568375E3,0E0,0E0,0E0,1.8339062E3,1.43225E3,0E0,0E0,0E0,0E0,0E0,0E0,0E0,0E0,0E0,0E0,0E0,0E0,5.626406E2,2.3516211E2,0E0,0E0,8.061694E1,0E0,0E0,0E0,0E0,0E0,2.3494453E3,1.882461E2,1.8119414E3,4.9058154E2,0E0,0E0,1.2235889E2,0E0,0E0,4.9661627E2,4.9810358E2,1.9745934E3,6.1306055E2,2.4642212E1,0E0,0E0,5.145083E2,3.045033E2,1.18202E3,2.2052856E2,9.412793E2,2.7775403E2,1.1642192E3,6.15084E2,1.337544E2,0E0,8.138428E1,0E0,7.7691113E2,0E0,3.1747764E3,1.01799023E3,1.0745865E3,7.68374E2,0E0,2.4490234E2,9.0172906E2,1.0019629E3,0E0,0E0,4.289922E2,0E0,0E0,0E0,0E0,5.4633594E2,0E0,0E0,0E0,0E0,0E0,0E0,5.1378906E2,0E0,0E0,0E0,3.570703E1,0E0,2.2589844E2,0E0,0E0,0E0,0E0,0E0,0E0,0E0,0E0,0E0,0E0,0E0,0E0,0E0,0E0,0E0,0E0,0E0,0E0,0E0,4.68125E1,0E0,0E0,0E0,1.175918E2,6.676616E2,4.177832E1,1.7967676E2,0E0,0E0,0E0,0E0,0E0,2.3508502E2,1.1624028E3,1.6694849E2,0E0,0E0,0E0,0E0,0E0,0E0,0E0,4.6492012E1,7.282179E2,1.859519E2,0E0,0E0,1.8347601E2,0E0,0E0,1.6096814E2,0E0,0E0,0E0,0E0,0E0,0E0,0E0,0E0,0E0,0E0,5.807495E2,4.9592334E2,1.4904785E2,1.9389038E2,2.3380891E2,2.253418E2,0E0,0E0,0E0,0E0,3.2846027E1,0E0,0E0,3.7496582E2,0E0,0E0,0E0,0E0,0E0,0E0,0E0,0E0,0E0,0E0,0E0,0E0,0E0,0E0,0E0,0E0,0E0,0E0,0E0,0E0,0E0,0E0,0E0,0E0,0E0,0E0,0E0,0E0,0E0,0E0,0E0,0E0,0E0,0E0,0E0,0E0,0E0,0E0,0E0,0E0,0E0,0E0,0E0,0E0,0E0,0E0,0E0,0E0,0E0,0E0,0E0,0E0],"parents":[2147483647,0,0,1,1,2,2,3,3,4,4,5,5,6,6,7,7,8,8,9,9,10,10,11,11,12,12,13,13,14,14,17,17,18,18,19,19,20,20,21,21,22,22,23,23,24,24,25,25,26,26,27,27,28,28,29,29,30,30,33,33,34,34,35,35,36,36,37,37,38,38,39,39,40,40,41,41,42,42,43,43,44,44,45,45,46,46,47,47,48,48,49,49,50,50,51,51,52,52,53,53,54,54,55,55,56,56,57,57,58,58,63,63,64,64,65,65,66,66,68,68,69,69,70,70,71,71,72,72,73,73,74,74,75,75,76,76,77,77,78,78,79,79,80,80,81,81,82,82,83,83,84,84,85,85,86,86,87,87,88,88,89,89,90,90,91,91,93,93,95,95,96,96,98,98,99,99,100,100,101,101,103,103,113,113,119,119,120,120,121,121,123,123,124,124,125,125,126,126,127,127,128,128,129,129,130,130,131,131,132,132,133,133,134,134,135,135,136,136,137,137,138,138,139,139,140,140,141,141,142,142,143,143,144,144,145,145,146,146,147,147,148,148,149,149,151,151,152,152,154,154,155,155,156,156,157,157,158,158,159,159,169,169,170,170,171,171,175,175,176,176,189,189,190,190,193,193,199,199,200,200,201,201,202,202,205,205,208,208,209,209,210,210,211,211,212,212,215,215,216,216,217,217,218,218,219,219,220,220,221,221,222,222,223,223,225,225,227,227,229,229,230,230,231,231,232,232,234,234,235,235,236,236,239,239,244,244,251,251,255,255,257,257,277,277,281,281,282,282,283,283,284,284,290,290,291,291,292,292,300,300,301,301,302,302,305,305,308,308,319,319,320,320,321,321,322,322,323,323,324,324,329,329,332,332],"right_children":[2,4,6,8,10,12,14,16,18,20,22,24,26,28,30,-1,-1,32,34,36,38,40,42,44,46,48,50,52,54,56,58,-1,-1,60,62,64,66,68,70,72,74,76,78,80,82,84,86,88,90,92,94,96,98,100,102,104,106,108,110,-1,-1,-1,-1,112,114,116,118,-1,120,122,124,126,128,130,132,134,136,138,140,142,144,146,148,150,152,154,156,158,160,162,164,166,-1,168,-1,170,172,-1,174,176,178,180,-1,182,-1,-1,-1,-1,-1,-1,-1,-1,-1,184,-1,-1,-1,-1,-1,186,188,190,-1,192,194,196,198,200,202,204,206,208,210,212,214,216,218,220,222,224,226,228,230,232,234,236,238,240,242,244,-1,246,248,-1,250,252,254,256,258,260,-1,-1,-1,-1,-1,-1,-1,-1,-1,262,264,266,-1,-1,-1,268,270,-1,-1,-1,-1,-1,-1,-1,-1,-1,-1,-1,-1,272,274,-1,-1,276,-1,-1,-1,-1,-1,278,280,282,284,-1,-1,286,-1,-1,288,290,292,294,296,-1,-1,298,300,302,304,306,308,310,312,314,-1,316,-1,318,-1,320,322,324,326,-1,328,330,332,-1,-1,334,-1,-1,-1,-1,336,-1,-1,-1,-1,-1,-1,338,-1,-1,-1,340,-1,342,-1,-1,-1,-1,-1,-1,-1,-1,-1,-1,-1,-1,-1,-1,-1,-1,-1,-1,-1,344,-1,-1,-1,346,348,350,352,-1,-1,-1,-1,-1,354,356,358,-1,-1,-1,-1,-1,-1,-1,360,362,364,-1,-1,366,-1,-1,368,-1,-1,-1,-1,-1,-1,-1,-1,-1,-1,370,372,374,376,378,380,-1,-1,-1,-1,382,-1,-1,384,-1,-1,-1,-1,-1,-1,-1,-1,-1,-1,-1,-1,-1,-1,-1,-1,-1,-1,-1,-1,-1,-1,-1,-1,-1,-1,-1,-1,-1,-1,-1,-1,-1,-1,-1,-1,-1,-1,-1,-1,-1,-1,-1,-1,-1,-1,-1,-1,-1,-1,-1,-1],"split_conditions":[1.8E1,1E1,2.4E1,6E0,1.4E1,1.02E2,1.08E2,4E0,8E0,9.3E1,9.7E1,4.9E1,2.2E1,4.5E1,5.2E1,-8.1802025E0,-7.22768E0,8.8E1,8.7E1,4.9E1,4.3E1,4.8E1,4.3E1,2.1E1,2E1,5E1,4E1,2.7E1,2.7E1,2.7E1,1E0,-6.620407E0,-5.883279E0,4.9E1,5.5E1,1.2E1,1.2E1,1.2E1,1.3E1,9.1E1,9.1E1,1.6E1,1.7E1,9.8E1,9.8E1,9.7E1,9.5E1,1.07E2,1E0,1.08E2,1E0,1.01E2,1.03E2,1E0,1E0,1.12E2,1.13E2,2.7E1,2.8E1,-6.240422E0,-5.3518453E0,-5.218311E0,-4.36068E0,1E0,1E0,8.7E1,1.9E2,-3.8067558E0,9.8E1,9.9E1,9.6E1,1E0,1.6E1,6.3E1,1.5E1,1.02E2,1E2,1.01E2,1E0,9.2E1,3.3E1,3.3E1,3.3E1,1.91E2,1E0,5.8E1,1.82E2,2E1,2.1E1,1.9E1,2E1,1.04E2,5.770345E0,5.4E1,5.720013E0,9.7E1,3.3E1,6.005025E0,2.8E1,1.02E2,1.02E2,5.2E1,8.952159E0,2.7E1,9.19714E0,1.0027573E1,1.2312188E1,1.2255739E1,1.5549205E1,9.5226755E0,1.1952956E1,-5.3788567E0,-4.499006E0,3.3E1,-3.5933206E0,-4.4479756E0,-3.6606221E0,-2.8646657E0,-1.9734538E0,1E0,3.6E1,1.2E1,-1.7110579E0,6.1E1,1.86E2,3.5E1,1.6E1,1E0,1E0,1.7E1,1.86E2,6.3E1,6.2E1,3.3E1,2.6E1,2.9E1,1.05E2,1.6E1,5.6E1,6.1E1,1.01E2,1E0,3.2E1,1E0,1.9E1,1E0,9.4E1,2.2E1,2.2E1,9.2E1,2.3479526E0,6.8E1,1.9E1,1.6126785E0,1E0,2.2E1,6.1E1,3.5E1,2.8E1,2.8E1,4.6095304E0,4.0679526E0,6.1283503E0,3.244175E0,4.5036864E0,3.47663E0,4.3992248E0,6.1944337E0,8.738555E0,1E0,9.9E1,1.04E2,6.478303E0,7.2084274E0,8.521654E0,6.5E1,6E1,5.6100183E0,7.130091E0,9.481057E0,1.214537E1,6.561249E0,7.964358E0,-4.74777E0,-3.7823052E0,-3.3956838E0,-2.7771218E0,-2.4471228E0,-1.5174919E0,1.86E2,7.2E1,-2.1017025E0,-1.4709724E0,7.2E1,-2.4099915E-1,-4.05142E0,-3.0602872E0,-2.8891256E0,-2.0528276E0,4.1E1,1.5E1,3.4E1,1.7E1,-2.1757638E0,-1.1299165E0,8.9E1,-5.576658E-1,-1.4904698E0,1E0,1.6E1,1E0,1E0,9.9E1,-8.5841477E-1,-1.2772642E-1,1E0,1.7E1,3E1,1.7E1,6.7E1,5.2E1,1.6E1,1.72E2,1.01E2,3.391608E0,1.59E2,1.5609926E0,3.3E1,-6.387143E-1,1E0,1.9E1,2.6E1,1.9E1,1.0794756E0,3.9E1,1.88E2,9.4E1,1.0880848E0,2.3004944E0,1E0,2.5623145E0,2.7625222E0,3.5654857E0,4.294756E-1,6E1,2.5359328E0,4.1052375E0,1.5476083E0,2.1938798E0,3.5844426E0,2.3847737E0,9.7E1,4.596418E0,4.477192E0,5.914756E0,1.05E2,2.5147557E0,1E0,3.3872907E0,2.7772129E0,3.9067543E0,1.2064471E0,2.3957772E0,3.401905E0,4.333484E0,4.378856E0,5.528885E0,5.9541497E0,8.22104E0,8.248819E0,1.0293478E1,-3.0394027E0,-2.1047628E0,-2.3432968E0,-1.504223E0,-1.2282306E0,-7.117347E-1,2.5E1,-1.4827371E0,-2.2116983E0,-1.7052764E0,9.5E1,9.4E1,9.4E1,9.5E1,-1.6356783E0,-9.4809836E-1,-1.4412902E-1,-1.0493325E0,-8.657614E-1,1.87E2,9.4E1,9.4E1,-2.0816462E0,-1.236103E0,-1.0753711E0,-6.7270046E-1,-1.5280184E0,-5.571892E-1,-4.9204764E-1,3.6E1,1E0,1.7E1,7.064471E-1,1.454619E0,1.5E1,4.410236E-1,2.18854E-1,1E0,-4.380774E-2,1.195777E0,8.496232E-1,1.901698E0,1.315538E0,2.2337198E0,1.1246289E0,5.882653E-1,-2.5909994E0,-1.2349921E0,9.6E1,9.6E1,9.5E1,1.72E2,2E1,1.87E2,6.472736E-1,1.5481135E0,1.6301186E0,2.218192E0,1.79E2,9.679524E-1,6.9158524E-1,2.2E1,1.3294756E0,2.2722738E0,8.2103986E-1,1.5949773E0,2.3279524E0,3.486405E0,1.4411645E0,1.9193503E0,1.963897E0,2.8156083E0,-3.3814285E0,-2.6824758E0,-2.3642328E0,-1.6483021E0,-1.6888384E0,-7.166948E-1,-1.4520477E0,-9.964124E-1,-8.85287E-1,-4.5195365E-1,-2.774242E-1,2.5190166E-1,2.7020407E-1,1.4006966E0,-4.753711E-1,2.9027602E-2,-3.8714297E-2,2.3371986E-1,-6.385446E-1,2.5169784E-1,2.6795238E-1,7.5160813E-1,-6.847628E-1,-2.5639185E-1,1.1173342E0,5.3461903E-1,-1.368181E0,-5.753867E-1,-2.316355E-1,4.64713E-1,-1.493325E-1,2.7505285E-1,1.0394218E0,5.9868103E-1,-3.2538098E-1,2.673342E-1,4.6500784E-1,1.1146191E0,-1.7537107E-1,7.0083484E-2,1.1246289E0,2.1152372E0],"split_indices":[3,3,3,3,3,4,4,3,3,4,4,1,3,1,1,0,0,4,4,1,1,1,1,3,3,1,1,3,3,3,0,0,0,1,1,3,3,3,3,4,4,3,3,4,4,4,4,4,0,4,0,4,4,0,0,4,4,3,3,0,0,0,0,0,0,4,2,0,4,4,4,0,3,1,3,4,4,4,0,4,1,1,1,2,0,1,2,3,3,3,3,4,0,1,0,4,1,0,1,4,4,1,0,1,0,0,0,0,0,0,0,0,0,1,0,0,0,0,0,0,1,3,0,1,2,1,3,0,0,3,2,1,1,1,1,1,4,3,1,1,4,0,1,0,3,0,4,3,3,4,0,1,3,0,0,3,1,1,1,1,0,0,0,0,0,0,0,0,0,0,4,4,0,0,0,1,1,0,0,0,0,0,0,0,0,0,0,0,0,2,1,0,0,1,0,0,0,0,0,1,3,1,3,0,0,4,0,0,0,3,0,0,4,0,0,0,3,1,3,1,1,3,2,4,0,2,0,1,0,0,3,1,3,0,1,2,4,0,0,0,0,0,0,0,1,0,0,0,0,0,0,4,0,0,0,4,0,0,0,0,0,0,0,0,0,0,0,0,0,0,0,0,0,0,0,0,0,1,0,0,0,4,4,4,4,0,0,0,0,0,2,4,4,0,0,0,0,0,0,0,1,0,3,0,0,3,0,0,0,0,0,0,0,0,0,0,0,0,0,4,4,4,2,3,2,0,0,0,0,2,0,0,3,0,0,0,0,0,0,0,0,0,0,0,0,0,0,0,0,0,0,0,0,0,0,0,0,0,0,0,0,0,0,0,0,0,0,0,0,0,0,0,0,0,0,0,0,0,0,0,0,0,0,0,0],"split_type":[0,0,0,0,0,0,0,0,0,0,0,0,0,0,0,0,0,0,0,0,0,0,0,0,0,0,0,0,0,0,0,0,0,0,0,0,0,0,0,0,0,0,0,0,0,0,0,0,0,0,0,0,0,0,0,0,0,0,0,0,0,0,0,0,0,0,0,0,0,0,0,0,0,0,0,0,0,0,0,0,0,0,0,0,0,0,0,0,0,0,0,0,0,0,0,0,0,0,0,0,0,0,0,0,0,0,0,0,0,0,0,0,0,0,0,0,0,0,0,0,0,0,0,0,0,0,0,0,0,0,0,0,0,0,0,0,0,0,0,0,0,0,0,0,0,0,0,0,0,0,0,0,0,0,0,0,0,0,0,0,0,0,0,0,0,0,0,0,0,0,0,0,0,0,0,0,0,0,0,0,0,0,0,0,0,0,0,0,0,0,0,0,0,0,0,0,0,0,0,0,0,0,0,0,0,0,0,0,0,0,0,0,0,0,0,0,0,0,0,0,0,0,0,0,0,0,0,0,0,0,0,0,0,0,0,0,0,0,0,0,0,0,0,0,0,0,0,0,0,0,0,0,0,0,0,0,0,0,0,0,0,0,0,0,0,0,0,0,0,0,0,0,0,0,0,0,0,0,0,0,0,0,0,0,0,0,0,0,0,0,0,0,0,0,0,0,0,0,0,0,0,0,0,0,0,0,0,0,0,0,0,0,0,0,0,0,0,0,0,0,0,0,0,0,0,0,0,0,0,0,0,0,0,0,0,0,0,0,0,0,0,0,0,0,0,0,0,0,0,0,0,0,0,0,0,0,0,0,0,0,0,0,0,0,0,0,0,0,0,0,0,0,0,0,0,0,0,0,0,0,0,0,0,0,0],"sum_hessian":[8.895E3,5.086E3,3.809E3,2.56E3,2.526E3,1.819E3,1.99E3,1.343E3,1.217E3,1.27E3,1.256E3,1.103E3,7.16E2,1.135E3,8.55E2,6.95E2,6.48E2,6.05E2,6.12E2,6.81E2,5.89E2,7.61E2,4.95E2,6.99E2,4.04E2,4.09E2,3.07E2,6.44E2,4.91E2,5.74E2,2.81E2,3.44E2,2.61E2,2.3E2,3.82E2,4.48E2,2.33E2,3.32E2,2.57E2,5.02E2,2.59E2,2.67E2,2.28E2,4.05E2,2.94E2,1.74E2,2.3E2,2.73E2,1.36E2,1.48E2,1.59E2,3.6E2,2.84E2,2.78E2,2.13E2,2.07E2,3.67E2,1.51E2,1.3E2,1.53E2,7.7E1,2.65E2,1.17E2,2.66E2,1.82E2,1.44E2,8.9E1,1.23E2,2.09E2,1.81E2,7.6E1,1.56E2,3.46E2,8E1,1.79E2,1.04E2,1.63E2,1.54E2,7.4E1,2.1E2,1.95E2,1.29E2,1.65E2,7.7E1,9.7E1,4.9E1,1.81E2,1.97E2,7.6E1,6.3E1,7.3E1,1.02E2,4.6E1,7E1,8.9E1,9.6E1,2.64E2,7.5E1,2.09E2,1.47E2,1.31E2,9.7E1,1.16E2,1.47E2,6E1,2.34E2,1.33E2,5.6E1,9.5E1,6.4E1,6.6E1,1.33E2,1.33E2,9.3E1,8.9E1,3E1,1.14E2,7.7E1,1.2E1,1.31E2,7.8E1,1.48E2,3.3E1,3.4E1,4.2E1,7.1E1,8.5E1,1.87E2,1.59E2,4.3E1,3.7E1,5.7E1,1.22E2,7.6E1,2.8E1,6.6E1,9.7E1,9.5E1,5.9E1,4.4E1,3E1,3.7E1,1.73E2,1.07E2,8.8E1,7.6E1,5.3E1,8.9E1,7.6E1,6.3E1,1.4E1,5E1,4.7E1,2.1E1,2.8E1,1.21E2,6E1,8.9E1,1.08E2,4.3E1,3.3E1,1.4E1,4.9E1,2.2E1,5.1E1,3.6E1,6.6E1,2.8E1,4.2E1,2.2E1,7.4E1,1.47E2,1.17E2,9.1E1,1.18E2,5.2E1,9.5E1,4.1E1,9E1,3E1,6.7E1,4.3E1,1.04E2,5.6E1,3.7E1,5.2E1,7.9E1,6E1,1.8E1,9.3E1,5.5E1,1.8E1,1.6E1,3.1E1,1.1E1,4.8E1,2.3E1,5E1,3.5E1,9.6E1,9.1E1,7.8E1,8.1E1,3.3E1,1E1,2.6E1,1.1E1,3.3E1,2.4E1,5.8E1,6.4E1,5.3E1,2.3E1,1.3E1,1.5E1,2.8E1,3.8E1,7.3E1,2.4E1,5.8E1,3.7E1,3E1,2.9E1,2E1,2.4E1,2E1,1E1,2.3E1,1.4E1,8.3E1,9E1,5.1E1,5.6E1,1.7E1,7.1E1,3.4E1,4.2E1,1.2E1,4.1E1,3.2E1,5.7E1,2.9E1,4.7E1,1.7E1,4.6E1,3.1E1,1.9E1,2.4E1,2.3E1,1.3E1,1.5E1,6.7E1,5.4E1,2.8E1,3.2E1,5.7E1,3.2E1,4.4E1,6.4E1,2.3E1,2E1,1E1,1.2E1,3.7E1,3.7E1,4.6E1,1.01E2,3.2E1,2E1,4.7E1,4.8E1,7.4E1,1.9E1,4.3E1,1.2E1,2.1E1,1E1,8E1,1.6E1,5.1E1,4E1,4.4E1,3.4E1,3.5E1,4.6E1,1.6E1,1E1,1.3E1,1.1E1,1.2E1,4.6E1,3.8E1,2.6E1,3.3E1,2E1,1E1,1.3E1,1.8E1,1E1,1.4E1,2.4E1,3.5E1,3.8E1,1E1,1.4E1,4.3E1,1.5E1,1.2E1,2.5E1,1.8E1,1.2E1,1.2E1,1.7E1,1E1,1E1,1E1,1E1,1.1E1,1.2E1,4.3E1,4E1,3.8E1,5.2E1,2.5E1,2.6E1,1.5E1,4.1E1,3.3E1,3.8E1,2E1,1.4E1,1.3E1,2.9E1,1.7E1,1.5E1,2E1,2.6E1,1.4E1,5.3E1,3.9E1,1.8E1,2E1,2.4E1,2.8E1,5.2E1,2.7E1,1.7E1,1.2E1,2.2E1,1.4E1,2.1E1,2.3E1,2.3E1,3.6E1,1E1,1.6E1,2.2E1,1E1,1.6E1,1.4E1,1E1,1.8E1,1.7E1,1.4E1,2.4E1,1.9E1,2.4E1,1.1E1,1.4E1,2.5E1,1.8E1,1.7E1,2.3E1,1.1E1,2.7E1,2.6E1,2.6E1,1.4E1,1.1E1,1.2E1,1.4E1,1E1,1E1,1E1,1.9E1],"tree_param":{"num_deleted":"0","num_feature":"6","num_nodes":"385","size_leaf_vector":"1"}},{"base_weights":[5.555678E-2,-4.1049984E1,5.4363785E1,-5.9144344E1,-1.7386572E1,2.7018238E1,7.925644E1,-6.765476E1,-4.7475628E1,-2.6188217E1,-5.7941628E0,1.5553007E1,3.9673405E1,6.79885E1,1.011558E2,-7.185069E1,-6.091349E1,-5.2625336E1,-4.227418E1,-3.3374332E1,-1.9734163E1,-1.627709E1,1.1025012E0,6.888672E0,2.4473219E1,2.7696148E1,4.694473E1,5.6059284E1,7.866264E1,8.5750305E1,1.10891846E2,-7.543653E0,-6.906283E0,-6.3405786E0,-5.727943E0,-5.5778553E1,-4.7052956E1,-4.759765E1,-3.8937485E1,-3.697126E1,-2.3926432E1,-2.4647272E1,-1.2436451E1,-2.052562E1,-6.79468E0,-5.4410663E0,9.0299225E0,1.14896E0,1.600046E1,1.7787693E1,3.488903E1,2.2135258E1,3.9390617E1,3.8000805E1,5.65629E1,4.68489E1,6.7399796E1,6.772991E1,9.1926476E1,7.0361304E0,9.285009E1,1.226362E2,9.773341E1,-5.8987336E0,-5.2087893E0,-5.0579925E0,-4.2082343E0,-4.8484616E0,-3.500911E0,-4.246256E1,-3.3581917E1,-4.4183216E1,-3.443091E1,-2.8160007E1,-1.8031229E1,-2.9563604E1,-2.0808794E1,-1.6681873E1,-3.3700912E0,-2.4983318E1,-1.5738583E1,-1.2576589E1,-2.1882708E0,-9.30112E0,2.9000382E0,6.4059935E0,2.4003716E1,-8.29265E0,5.3102856E0,7.9803405E0,1.9161964E1,8.038278E0,2.150325E1,2.797276E1,4.3594612E1,1.8357584E1,2.8022444E1,4.5820255E1,3.1144424E1,3.0308716E1,4.453957E1,6.642759E1,4.8393738E1,3.493114E1,5.4287605E1,5.8182827E1,7.41372E0,5.6009766E1,7.545425E1,1.0204676E2,8.1551094E1,8.476283E0,9.885581E0,1.0985914E2,1.3894109E1,8.441285E0,1.0780269E1,-4.4059453E0,-3.7230318E0,-3.4415631E0,-2.4031713E0,-4.879798E0,-3.8386524E0,-3.7570538E1,-3.0394955E1,-3.1737015E0,-2.3921812E1,-2.4118783E0,-1.4557349E1,-3.1275938E0,-2.4977684E0,-2.2782772E1,-1.2274999E1,-1.8291037E1,-5.651595E0,-6.735506E0,5.884995E0,-3.347354E1,-2.1436258E1,-1.9541355E1,-1.2199902E1,-1.648316E0,-8.499895E0,2.4424872E0,-5.694283E0,-1.27549E1,-3.9142933E0,-7.025426E-1,7.6648617E0,2.9778857E0,1.3132813E1,2.6979292E1,1.506039E0,-1.5395476E1,-8.622607E-1,1.1281017E0,8.420537E0,2.3386729E0,1.1298522E1,1.5173959E1,2.3605433E1,-2.3150024E-1,1.1406178E1,2.7279467E1,1.5741729E1,1.5842704E1,3.1477743E1,3.6271217E0,4.985472E1,1.5082836E1,2.3969229E1,2.01767E0,3.0331986E0,3.6316922E0,4.9866304E0,2.7264526E0,3.8379886E0,2.502802E1,3.499709E0,3.9302006E1,4.988597E0,6.0331715E1,8.343135E0,4.2695575E0,5.5517106E0,2.429076E1,4.0047344E1,4.950084E0,5.9246078E0,4.7934737E0,6.0914493E0,5.191597E1,6.778679E1,8.5268654E1,6.5584025E0,8.687334E1,1.1452821E2,7.060646E0,8.72969E0,9.629936E0,1.2093259E1,-4.0296124E1,-3.33823E0,-3.319763E1,-2.624152E0,-2.566983E0,-1.6538601E0,-1.735753E0,-7.053103E-1,-2.4052095E1,-1.8061222E1,-1.4614794E0,-8.9050055E-1,-2.0729069E1,-1.4825464E1,-1.8419301E-2,-9.28425E-1,-9.154995E0,-1.230148E0,-1.3441259E-2,1.0194173E0,-3.6400914E0,-2.5043907E0,-2.568483E0,-1.5861611E1,-2.0865705E0,-1.488623E0,-1.4468132E1,-7.5383596E0,-1.113248E0,-4.0620753E-1,-3.1052819E-2,7.225926E-1,-7.4048057E0,-6.670616E-2,-1.4501665E1,-5.9905787E0,-7.363939E0,3.2313824E-1,-3.4462616E0,3.7418118E0,5.7893233E0,1.1691967E0,2.2462547E-1,7.14992E0,6.996414E0,1.7204636E1,1.917922E0,3.246074E0,-2.1165082E0,-1.1228211E1,-3.7641864E0,5.5794597E-1,-3.5904686E0,4.225584E0,4.771532E0,1.1547026E1,-1.6865717E-1,6.517243E-1,7.0343643E-1,1.4144922E0,1.0924705E1,2.05425E1,1.7440131E0,2.5168753E0,-4.3788448E-1,3.933652E-1,5.053019E-1,1.4072126E1,1.834957E1,3.4765453E0,1.1439008E1,1.8588345E1,1.1299E0,1.8421488E0,2.4305336E0,3.5360868E0,5.568406E0,3.8349533E0,1.0086749E0,1.6229307E1,1.6930374E0,2.6175E0,2.056845E1,2.9842541E0,3.2049942E0,4.2096715E0,5.2637935E0,7.069818E0,1.6776367E1,3.053295E0,2.7635982E0,4.154488E0,3.5884194E0,5.332586E0,7.674109E0,5.3574166E0,7.5970435E0,9.210202E0,6.750901E0,9.223786E0,8.013127E0,1.1921317E1,-4.439613E0,-3.5062203E0,-3.6761956E0,-2.7676418E0,-2.6907501E0,-2.1064596E0,-2.1223667E0,-1.4935316E0,-2.4234064E0,-1.8730991E1,-7.895483E0,-1.8048742E1,-1.131202E0,-6.5999284E0,-6.0207367E-1,3.6722726E-1,-1.76894E0,-8.6039525E-1,-1.5640515E0,-1.0288967E0,-5.234088E-1,-9.598481E-1,-5.391606E-1,-8.924352E-1,-1.713393E1,-1.0611226E1,-7.915632E-1,-2.603784E-1,-1.1042867E1,-3.5376105E0,-2.661961E-1,1.6975365E0,-7.309996E-1,-4.7962502E-1,1.1855322E-1,6.422705E-1,4.1847844E0,8.472099E-1,-2.4544435E0,4.273361E0,1.2540804E1,2.658632E0,4.0160528E-1,8.824237E-1,1.2050192E1,2.3623865E0,-1.5501535E0,-8.3164734E-1,-6.991167E-1,-1.8329155E0,-6.26131E0,7.441864E-2,3.5473487E-1,7.3357935E0,1.3640485E0,1.1177548E0,6.651025E-1,1.3424699E1,1.907074E-1,1.3520858E1,1.5015892E0,2.3533552E0,1.1081041E1,1.9662075E0,1.201889E1,2.2519411E1,6.370658E-1,1.266992E1,1.6244576E1,2.1389062E0,1.247808E0,1.7212237E0,1.6838633E0,2.3412025E0,1.1078445E0,2.0054996E0,-1.5618703E0,-2.0367532E0,-1.1372141E0,-4.5998606E-1,-2.0309687E0,-1.4282352E0,-8.247533E-1,-4.402329E-1,-1.8822329E0,-1.3021631E0,-1.2575754E0,-7.7672064E-1,-1.397296E0,-6.309761E-1,-2.0712383E-1,-4.5418143E-1,3.1031275E-2,3.274309E-1,-1.2997894E-1,3.1216113E-2,5.3356767E-1,2.781068E-1,-5.202802E-1,-7.0193135E-3,9.2361294E-2,7.3981965E-1,8.9275324E-1,1.4836253E0,-1.1062192E-1,6.066623E-1,7.939337E-1,1.4809587E0,-3.9613762E-1,6.556702E-2,-7.6517826E-1,-4.0488145E-1,-1.13708295E-1,1.3581887E-1,9.129381E-1,3.7351635E-1,-1.02333404E-1,4.5137984E-1,1.076564E0,1.5413603E0,9.518701E-1,1.5545113E0,1.2448872E0,7.711055E-1,7.5735337E-1,1.5775744E0,1.7354311E0,2.681385E0,1.4127738E0,9.9646646E-1,1.3586321E0,1.8885475E0],"categories":[],"categories_nodes":[],"categories_segments":[],"categories_sizes":[],"default_left":[0,0,0,0,0,0,0,0,0,0,0,0,0,0,0,0,0,0,0,0,0,0,0,0,0,0,0,0,0,0,0,0,0,0,0,0,0,0,0,0,0,0,0,0,0,0,0,0,0,0,0,0,0,0,0,0,0,0,0,0,0,0,0,0,0,0,0,0,0,0,0,0,0,0,0,0,0,0,0,0,0,0,0,0,0,0,0,0,0,0,0,0,0,0,0,0,0,0,0,0,0,0,0,0,0,0,0,0,0,0,0,0,0,0,0,0,0,0,0,0,0,0,0,0,0,0,0,0,0,0,0,0,0,0,0,0,0,0,0,0,0,0,0,0,0,0,0,0,0,0,0,0,0,0,0,0,0,0,0,0,0,0,0,0,0,0,0,0,0,0,0,0,0,0,0,0,0,0,0,0,0,0,0,0,0,0,0,0,0,0,0,0,0,0,0,0,0,0,0,0,0,0,0,0,0,0,0,0,0,0,0,0,0,0,0,0,0,0,0,0,0,0,0,0,0,0,0,0,0,0,0,0,0,0,0,0,0,0,0,0,0,0,0,0,0,0,0,0,0,0,0,0,0,0,0,0,0,0,0,0,0,0,0,0,0,0,0,0,0,0,0,0,0,0,0,0,0,0,0,0,0,0,0,0,0,0,0,0,0,0,0,0,0,0,0,0,0,0,0,0,0,0,0,0,0,0,0,0,0,0,0,0,0,0,0,0,0,0,0,0,0,0,0,0,0,0,0,0,0,0,0,0,0,0,0,0,0,0,0,0,0,0,0,0,0,0,0,0,0,0,0,0,0,0,0,0,0,0,0,0,0,0,0,0,0,0,0,0,0,0,0,0,0,0,0,0,0,0,0,0,0,0,0,0,0,0,0,0,0,0,0,0,0,0,0,0,0,0,0,0,0,0,0,0,0,0,0,0,0,0,0,0,0,0,0,0,0,0,0,0,0,0,0,0,0,0,0,0,0,0,0,0,0,0,0],"id":1,"left_children":[1,3,5,7,9,11,13,15,17,19,21,23,25,27,29,31,33,35,37,39,41,43,45,47,49,51,53,55,57,59,61,-1,-1,-1,-1,63,65,67,69,71,73,75,77,79,81,83,85,87,89,91,93,95,97,99,101,103,105,107,109,-1,111,113,115,-1,-1,-1,-1,-1,-1,117,119,121,123,125,127,129,131,133,135,137,139,141,143,145,147,149,151,153,155,157,159,161,163,165,167,169,171,173,175,177,179,181,183,185,187,189,-1,191,193,195,197,-1,-1,199,-1,-1,-1,-1,-1,-1,-1,-1,-1,201,203,-1,205,-1,207,-1,-1,209,211,213,215,217,219,221,223,225,227,-1,229,231,233,235,237,239,241,243,245,247,-1,249,251,253,255,257,259,261,263,265,267,269,271,273,275,-1,277,279,281,-1,-1,-1,-1,-1,-1,283,-1,285,-1,287,-1,-1,-1,289,291,-1,-1,-1,-1,293,295,297,-1,299,301,-1,-1,-1,-1,303,-1,305,-1,-1,-1,-1,-1,307,309,-1,-1,311,313,-1,-1,315,317,-1,-1,-1,-1,-1,319,-1,-1,321,323,-1,-1,-1,-1,325,-1,327,329,331,333,335,337,339,-1,341,343,345,347,-1,-1,-1,349,351,-1,353,355,357,359,-1,-1,-1,-1,361,363,-1,-1,-1,-1,-1,365,367,-1,369,371,-1,-1,-1,-1,-1,-1,-1,373,-1,-1,375,-1,-1,-1,-1,-1,377,-1,-1,-1,-1,-1,-1,-1,-1,-1,-1,-1,-1,-1,-1,-1,-1,-1,-1,-1,-1,-1,-1,379,381,383,-1,385,-1,-1,-1,-1,-1,-1,-1,-1,-1,-1,387,389,-1,-1,391,393,-1,395,-1,397,-1,-1,399,-1,401,403,405,407,-1,-1,409,-1,-1,-1,-1,411,413,-1,415,417,419,-1,-1,421,-1,423,-1,-1,425,-1,427,429,-1,431,433,-1,-1,-1,-1,-1,-1,-1,-1,-1,-1,-1,-1,-1,-1,-1,-1,-1,-1,-1,-1,-1,-1,-1,-1,-1,-1,-1,-1,-1,-1,-1,-1,-1,-1,-1,-1,-1,-1,-1,-1,-1,-1,-1,-1,-1,-1,-1,-1,-1,-1,-1,-1,-1,-1,-1,-1,-1,-1,-1,-1,-1,-1,-1],"loss_changes":[2.0198476E7,2.204069E6,2.65124E6,2.86562E5,2.2768631E5,2.6911325E5,4.96515E5,4.3285E4,3.0829E4,5.8197125E4,6.978477E4,7.534147E4,7.560075E4,1.67491E5,9.4133E4,5.117E3,2.2825E3,8.199125E3,9.141875E3,1.9471438E4,2.3751828E4,1.52901875E4,3.0291451E4,2.5974238E4,3.2873938E4,2.0978703E4,4.4991875E4,6.379525E4,9.6731E4,2.3185375E4,5.29195E4,0E0,0E0,0E0,0E0,1.522375E3,1.886125E3,9.15375E2,5.8611875E3,6.3934375E3,3.6851562E3,6.933328E3,1.0413199E4,5.2403438E3,3.168539E3,1.0330047E4,1.0218836E4,1.206666E4,4.7153633E3,1.0513383E4,1.0039828E4,4.600742E3,4.2460938E3,1.3085219E4,1.7898938E4,2.9752688E4,1.33845E4,3.135225E4,2.50685E4,0E0,5.08875E2,3.015175E4,1.8128E4,0E0,0E0,0E0,0E0,0E0,0E0,2.7303125E2,4.3095312E2,1.0425938E3,2.9635625E3,6.9614844E2,1.1926582E3,5.772969E2,3.5611094E3,3.180289E3,2.7805925E3,3.3480156E3,1.5109785E3,7.039668E2,1.1179218E3,4.0245469E3,1.7562826E3,5.1725107E3,6.315332E2,4.9477407E3,2.761128E3,1.02190137E3,2.0695312E3,2.3143394E3,6.659172E3,4.0504844E3,1.9051719E3,2.2663477E3,9.825703E2,4.1916406E2,3.5723047E2,2.4664062E3,2.3237188E3,6.9901875E3,3.596375E3,6.648578E3,2.2415E3,5.7940625E2,0E0,4.1948125E3,1.7075375E4,1.9784125E4,4.023875E3,0E0,0E0,7.42375E3,0E0,0E0,0E0,0E0,0E0,0E0,0E0,0E0,0E0,6.8678125E2,8.4003125E2,0E0,1.9494531E2,0E0,9.072256E2,0E0,0E0,6.6833594E2,2.2468408E2,1.053E3,4.9481958E2,8.5454834E2,6.2389905E2,2.6097656E1,1.9136641E3,6.5453125E1,6.310762E2,0E0,2.81901E2,3.9731024E2,3.3042847E2,1.4846152E3,1.274114E3,7.323447E2,2.6464282E2,1.7328851E3,1.7785889E3,5.745879E2,0E0,9.164404E2,8.9959155E2,1.3598151E3,1.336749E3,3.810266E2,3.2531152E2,1.486502E3,1.6826953E2,4.4908286E2,9.28187E2,6.3812266E3,1.1224219E3,9.650342E1,1.4243516E3,0E0,6.143203E2,3.689922E2,3.486797E2,0E0,0E0,0E0,0E0,0E0,0E0,8.2472266E2,0E0,3.1271875E2,0E0,3.377E3,0E0,0E0,0E0,1.7392695E3,5.804219E2,0E0,0E0,0E0,0E0,8.6659375E2,7.246875E2,2.46375E2,0E0,1.564125E3,3.822625E3,0E0,0E0,0E0,0E0,6.536406E2,0E0,6.35625E2,0E0,0E0,0E0,0E0,0E0,6.445469E2,1.0809375E2,0E0,0E0,1.9036719E2,1.4211035E3,0E0,0E0,1.7335156E2,5.153048E2,0E0,0E0,0E0,0E0,0E0,4.4474805E2,0E0,0E0,6.4456055E1,6.843762E1,0E0,0E0,0E0,0E0,4.0598755E1,0E0,8.9345703E2,1.6846252E2,6.366201E2,1.6862738E2,4.2059888E2,1.5000726E2,1.0229382E2,0E0,1.00839825E3,1.4193794E3,1.3888379E2,1.2042686E3,0E0,0E0,0E0,2.4436572E2,1.9284753E2,0E0,4.330151E2,6.7159015E2,1.2508002E3,5.082627E2,0E0,0E0,0E0,0E0,1.00430566E3,1.7559375E2,0E0,0E0,0E0,0E0,0E0,4.6764453E2,1.0492383E3,0E0,2.0626367E2,7.26543E1,0E0,0E0,0E0,0E0,0E0,0E0,0E0,5.807617E1,0E0,0E0,8.801758E0,0E0,0E0,0E0,0E0,0E0,2.261748E2,0E0,0E0,0E0,0E0,0E0,0E0,0E0,0E0,0E0,0E0,0E0,0E0,0E0,0E0,0E0,0E0,0E0,0E0,0E0,0E0,0E0,0E0,2.7695312E0,2.2267578E2,1.1016406E2,0E0,4.696942E1,0E0,0E0,0E0,0E0,0E0,0E0,0E0,0E0,0E0,0E0,1.784375E2,1.5374365E2,0E0,0E0,2.4467651E2,2.740625E1,0E0,6.0229362E1,0E0,1.46924305E1,0E0,0E0,2.0702667E1,0E0,3.6659012E2,3.8046112E2,9.148877E1,4.4295068E2,0E0,0E0,1.8869556E2,0E0,0E0,0E0,0E0,1.19128204E2,3.9776917E1,0E0,4.0465595E1,1.6609973E2,2.9788577E2,0E0,0E0,7.733887E1,0E0,1.2747803E2,0E0,0E0,3.7683594E1,0E0,2.4793384E2,1.7791895E2,0E0,1.1972656E0,1.7202148E1,0E0,0E0,0E0,0E0,0E0,0E0,0E0,0E0,0E0,0E0,0E0,0E0,0E0,0E0,0E0,0E0,0E0,0E0,0E0,0E0,0E0,0E0,0E0,0E0,0E0,0E0,0E0,0E0,0E0,0E0,0E0,0E0,0E0,0E0,0E0,0E0,0E0,0E0,0E0,0E0,0E0,0E0,0E0,0E0,0E0,0E0,0E0,0E0,0E0,0E0,0E0,0E0,0E0,0E0,0E0,0E0,0E0,0E0,0E0,0E0,0E0,0E0,0E0],"parents":[2147483647,0,0,1,1,2,2,3,3,4,4,5,5,6,6,7,7,8,8,9,9,10,10,11,11,12,12,13,13,14,14,15,15,16,16,17,17,18,18,19,19,20,20,21,21,22,22,23,23,24,24,25,25,26,26,27,27,28,28,29,29,30,30,35,35,36,36,37,37,38,38,39,39,40,40,41,41,42,42,43,43,44,44,45,45,46,46,47,47,48,48,49,49,50,50,51,51,52,52,53,53,54,54,55,55,56,56,57,57,58,58,60,60,61,61,62,62,69,69,70,70,71,71,72,72,73,73,74,74,75,75,76,76,77,77,78,78,79,79,80,80,81,81,82,82,83,83,84,84,85,85,86,86,87,87,88,88,89,89,90,90,91,91,92,92,93,93,94,94,95,95,96,96,97,97,98,98,99,99,100,100,101,101,102,102,103,103,104,104,105,105,107,107,108,108,109,109,110,110,113,113,123,123,124,124,126,126,128,128,131,131,132,132,133,133,134,134,135,135,136,136,137,137,138,138,139,139,140,140,142,142,143,143,144,144,145,145,146,146,147,147,148,148,149,149,150,150,151,151,153,153,154,154,155,155,156,156,157,157,158,158,159,159,160,160,161,161,162,162,163,163,164,164,165,165,166,166,168,168,169,169,170,170,177,177,179,179,181,181,185,185,186,186,191,191,192,192,193,193,195,195,196,196,201,201,203,203,209,209,210,210,213,213,214,214,217,217,218,218,224,224,227,227,228,228,233,233,235,235,236,236,237,237,238,238,239,239,240,240,241,241,243,243,244,244,245,245,246,246,250,250,251,251,253,253,254,254,255,255,256,256,261,261,262,262,268,268,269,269,271,271,272,272,280,280,283,283,289,289,312,312,313,313,314,314,316,316,327,327,328,328,331,331,332,332,334,334,336,336,339,339,341,341,342,342,343,343,344,344,347,347,352,352,353,353,355,355,356,356,357,357,360,360,362,362,365,365,367,367,368,368,370,370,371,371],"right_children":[2,4,6,8,10,12,14,16,18,20,22,24,26,28,30,32,34,36,38,40,42,44,46,48,50,52,54,56,58,60,62,-1,-1,-1,-1,64,66,68,70,72,74,76,78,80,82,84,86,88,90,92,94,96,98,100,102,104,106,108,110,-1,112,114,116,-1,-1,-1,-1,-1,-1,118,120,122,124,126,128,130,132,134,136,138,140,142,144,146,148,150,152,154,156,158,160,162,164,166,168,170,172,174,176,178,180,182,184,186,188,190,-1,192,194,196,198,-1,-1,200,-1,-1,-1,-1,-1,-1,-1,-1,-1,202,204,-1,206,-1,208,-1,-1,210,212,214,216,218,220,222,224,226,228,-1,230,232,234,236,238,240,242,244,246,248,-1,250,252,254,256,258,260,262,264,266,268,270,272,274,276,-1,278,280,282,-1,-1,-1,-1,-1,-1,284,-1,286,-1,288,-1,-1,-1,290,292,-1,-1,-1,-1,294,296,298,-1,300,302,-1,-1,-1,-1,304,-1,306,-1,-1,-1,-1,-1,308,310,-1,-1,312,314,-1,-1,316,318,-1,-1,-1,-1,-1,320,-1,-1,322,324,-1,-1,-1,-1,326,-1,328,330,332,334,336,338,340,-1,342,344,346,348,-1,-1,-1,350,352,-1,354,356,358,360,-1,-1,-1,-1,362,364,-1,-1,-1,-1,-1,366,368,-1,370,372,-1,-1,-1,-1,-1,-1,-1,374,-1,-1,376,-1,-1,-1,-1,-1,378,-1,-1,-1,-1,-1,-1,-1,-1,-1,-1,-1,-1,-1,-1,-1,-1,-1,-1,-1,-1,-1,-1,380,382,384,-1,386,-1,-1,-1,-1,-1,-1,-1,-1,-1,-1,388,390,-1,-1,392,394,-1,396,-1,398,-1,-1,400,-1,402,404,406,408,-1,-1,410,-1,-1,-1,-1,412,414,-1,416,418,420,-1,-1,422,-1,424,-1,-1,426,-1,428,430,-1,432,434,-1,-1,-1,-1,-1,-1,-1,-1,-1,-1,-1,-1,-1,-1,-1,-1,-1,-1,-1,-1,-1,-1,-1,-1,-1,-1,-1,-1,-1,-1,-1,-1,-1,-1,-1,-1,-1,-1,-1,-1,-1,-1,-1,-1,-1,-1,-1,-1,-1,-1,-1,-1,-1,-1,-1,-1,-1,-1,-1,-1,-1,-1,-1],"split_conditions":[1.8E1,1.1E1,2.4E1,7E0,1.5E1,1.01E2,1.09E2,5E0,8.9E1,9.3E1,9.5E1,4E1,2.1E1,4E1,3.5E1,3E0,4.5E1,4.8E1,9E0,5.5E1,4.5E1,4.9E1,4.2E1,2.1E1,2.1E1,5.1E1,4.1E1,2.7E1,2.7E1,2.7E1,1E0,-7.543653E0,-6.906283E0,-6.3405786E0,-5.727943E0,1E0,9E0,7E1,4.6E1,8.7E1,1.3E1,1.3E1,1.4E1,1E0,9.1E1,1.01E2,1.03E2,9.5E1,9.6E1,9.5E1,5.7E1,1.05E2,1E0,1.05E2,1E0,1.03E2,1.05E2,1.03E2,1E0,7.0361304E0,1.12E2,5.6E1,2.8E1,-5.8987336E0,-5.2087893E0,-5.0579925E0,-4.2082343E0,-4.8484616E0,-3.500911E0,9.5E1,7.6E1,1E0,1.3E1,8.9E1,8.8E1,9.8E1,1E2,1.01E2,1.01E2,9E1,9.1E1,6E1,1E0,1.7E1,1.7E1,1.7E1,1E0,1E0,9.8E1,1E0,1E0,5E1,1E0,9.6E1,9.8E1,3.8E1,1.9E1,1.9E1,1.06E2,2.9E1,1.08E2,1.08E2,1.06E2,9.9E1,1.06E2,1.01E2,7.41372E0,6.8E1,1E0,5.6E1,1.04E2,8.476283E0,9.885581E0,2.8E1,1.3894109E1,8.441285E0,1.0780269E1,-4.4059453E0,-3.7230318E0,-3.4415631E0,-2.4031713E0,-4.879798E0,-3.8386524E0,3.6E1,3.5E1,-3.1737015E0,1.88E2,-2.4118783E0,1.87E2,-3.1275938E0,-2.4977684E0,3.5E1,1.4E1,6.4E1,1E0,1.81E2,1.75E2,4E1,3.2E1,1.7E1,1.7E1,-1.648316E0,1.8E2,6.7E1,1.7E1,3.6E1,3.2E1,1.04E2,1.05E2,6E1,5.5E1,5.2E1,1.506039E0,2.6E1,2E1,1E0,1E0,1.85E2,2.2E1,3E1,2.2E1,1.9E1,9.2E1,5.7E1,1.9E1,4.06E1,2.2E1,3.6271217E0,1E0,1.9E1,1.9E1,2.01767E0,3.0331986E0,3.6316922E0,4.9866304E0,2.7264526E0,3.8379886E0,1E0,3.499709E0,2.2E1,4.988597E0,6.3E1,8.343135E0,4.2695575E0,5.5517106E0,1E0,2.2E1,4.950084E0,5.9246078E0,4.7934737E0,6.0914493E0,9.5E1,1E0,5.6E1,6.5584025E0,1.04E2,1.02E2,7.060646E0,8.72969E0,9.629936E0,1.2093259E1,1E0,-3.33823E0,1E0,-2.624152E0,-2.566983E0,-1.6538601E0,-1.735753E0,-7.053103E-1,1E0,9.5E1,-1.4614794E0,-8.9050055E-1,1.2E1,1E0,-1.8419301E-2,-9.28425E-1,9.6E1,6.2E1,-1.3441259E-2,1.0194173E0,-3.6400914E0,-2.5043907E0,-2.568483E0,1.7E1,-2.0865705E0,-1.488623E0,9.4E1,1.64E2,-1.113248E0,-4.0620753E-1,-3.1052819E-2,7.225926E-1,1.71E2,-6.670616E-2,1E0,9.8E1,1E0,9.7E1,2.9E1,2.8E1,3.6E1,1.1691967E0,9.9E1,1E0,9.9E1,1.84E2,1.917922E0,3.246074E0,-2.1165082E0,9.2E1,9.2E1,5.5794597E-1,3E1,1.9E1,3.3E1,1.9E1,-1.6865717E-1,6.517243E-1,7.0343643E-1,1.4144922E0,1.78E2,1.79E2,1.7440131E0,2.5168753E0,-4.3788448E-1,3.933652E-1,5.053019E-1,1.84E2,9.8E1,3.4765453E0,5E1,5.9E1,1.1299E0,1.8421488E0,2.4305336E0,3.5360868E0,5.568406E0,3.8349533E0,1.0086749E0,2.5E1,1.6930374E0,2.6175E0,2.4E1,2.9842541E0,3.2049942E0,4.2096715E0,5.2637935E0,7.069818E0,2.9E1,3.053295E0,2.7635982E0,4.154488E0,3.5884194E0,5.332586E0,7.674109E0,5.3574166E0,7.5970435E0,9.210202E0,6.750901E0,9.223786E0,8.013127E0,1.1921317E1,-4.439613E0,-3.5062203E0,-3.6761956E0,-2.7676418E0,-2.6907501E0,-2.1064596E0,-2.1223667E0,-1.4935316E0,-2.4234064E0,1E0,4E1,1.3E1,-1.131202E0,5.9E1,-6.0207367E-1,3.6722726E-1,-1.76894E0,-8.6039525E-1,-1.5640515E0,-1.0288967E0,-5.234088E-1,-9.598481E-1,-5.391606E-1,-8.924352E-1,2.8E1,1.6E1,-7.915632E-1,-2.603784E-1,1.85E2,1.62E2,-2.661961E-1,9.9E1,-7.309996E-1,1.71E2,1.1855322E-1,6.422705E-1,1.69E2,8.472099E-1,1.6E1,1.76E2,9.7E1,9.9E1,4.0160528E-1,8.824237E-1,9.8E1,2.3623865E0,-1.5501535E0,-8.3164734E-1,-6.991167E-1,1.9E1,9.7E1,7.441864E-2,9.6E1,1.68E2,1.86E2,1.1177548E0,6.651025E-1,2E1,1.907074E-1,2.2E1,1.5015892E0,2.3533552E0,1.65E2,1.9662075E0,5E1,1.88E2,6.370658E-1,1.65E2,9.9E1,2.1389062E0,1.247808E0,1.7212237E0,1.6838633E0,2.3412025E0,1.1078445E0,2.0054996E0,-1.5618703E0,-2.0367532E0,-1.1372141E0,-4.5998606E-1,-2.0309687E0,-1.4282352E0,-8.247533E-1,-4.402329E-1,-1.8822329E0,-1.3021631E0,-1.2575754E0,-7.7672064E-1,-1.397296E0,-6.309761E-1,-2.0712383E-1,-4.5418143E-1,3.1031275E-2,3.274309E-1,-1.2997894E-1,3.1216113E-2,5.3356767E-1,2.781068E-1,-5.202802E-1,-7.0193135E-3,9.2361294E-2,7.3981965E-1,8.9275324E-1,1.4836253E0,-1.1062192E-1,6.066623E-1,7.939337E-1,1.4809587E0,-3.9613762E-1,6.556702E-2,-7.6517826E-1,-4.0488145E-1,-1.13708295E-1,1.3581887E-1,9.129381E-1,3.7351635E-1,-1.02333404E-1,4.5137984E-1,1.076564E0,1.5413603E0,9.518701E-1,1.5545113E0,1.2448872E0,7.711055E-1,7.5735337E-1,1.5775744E0,1.7354311E0,2.681385E0,1.4127738E0,9.9646646E-1,1.3586321E0,1.8885475E0],"split_indices":[3,3,3,3,3,4,4,3,4,4,4,1,3,1,1,3,1,1,3,1,1,1,1,3,3,1,1,3,3,3,0,0,0,0,0,0,3,1,1,4,3,3,3,0,4,4,4,4,4,4,1,4,0,4,0,4,4,4,0,0,4,1,3,0,0,0,0,0,0,4,1,0,3,4,4,4,4,4,4,4,4,1,0,3,3,3,0,0,4,0,0,1,0,4,4,1,3,3,4,1,4,4,4,4,4,4,0,1,0,1,4,0,0,3,0,0,0,0,0,0,0,0,0,1,1,0,2,0,2,0,0,1,3,1,0,2,2,1,1,3,3,0,2,1,3,1,1,4,4,1,1,1,0,1,3,0,0,2,3,1,3,3,4,1,3,5,3,0,0,3,3,0,0,0,0,0,0,0,0,3,0,1,0,0,0,0,1,0,0,0,0,4,0,1,0,4,4,0,0,0,0,0,0,0,0,0,0,0,0,0,4,0,0,3,0,0,0,4,1,0,0,0,0,0,3,0,0,4,2,0,0,0,0,2,0,0,4,0,4,1,1,1,0,4,0,4,2,0,0,0,4,4,0,1,3,1,3,0,0,0,0,2,2,0,0,0,0,0,2,4,0,1,1,0,0,0,0,0,0,0,1,0,0,1,0,0,0,0,0,1,0,0,0,0,0,0,0,0,0,0,0,0,0,0,0,0,0,0,0,0,0,0,0,5,3,0,1,0,0,0,0,0,0,0,0,0,0,1,3,0,0,2,2,0,4,0,2,0,0,2,0,3,2,4,4,0,0,4,0,0,0,0,3,4,0,4,2,2,0,0,3,0,3,0,0,2,0,1,2,0,2,4,0,0,0,0,0,0,0,0,0,0,0,0,0,0,0,0,0,0,0,0,0,0,0,0,0,0,0,0,0,0,0,0,0,0,0,0,0,0,0,0,0,0,0,0,0,0,0,0,0,0,0,0,0,0,0,0,0,0,0,0,0,0,0],"split_type":[0,0,0,0,0,0,0,0,0,0,0,0,0,0,0,0,0,0,0,0,0,0,0,0,0,0,0,0,0,0,0,0,0,0,0,0,0,0,0,0,0,0,0,0,0,0,0,0,0,0,0,0,0,0,0,0,0,0,0,0,0,0,0,0,0,0,0,0,0,0,0,0,0,0,0,0,0,0,0,0,0,0,0,0,0,0,0,0,0,0,0,0,0,0,0,0,0,0,0,0,0,0,0,0,0,0,0,0,0,0,0,0,0,0,0,0,0,0,0,0,0,0,0,0,0,0,0,0,0,0,0,0,0,0,0,0,0,0,0,0,0,0,0,0,0,0,0,0,0,0,0,0,0,0,0,0,0,0,0,0,0,0,0,0,0,0,0,0,0,0,0,0,0,0,0,0,0,0,0,0,0,0,0,0,0,0,0,0,0,0,0,0,0,0,0,0,0,0,0,0,0,0,0,0,0,0,0,0,0,0,0,0,0,0,0,0,0,0,0,0,0,0,0,0,0,0,0,0,0,0,0,0,0,0,0,0,0,0,0,0,0,0,0,0,0,0,0,0,0,0,0,0,0,0,0,0,0,0,0,0,0,0,0,0,0,0,0,0,0,0,0,0,0,0,0,0,0,0,0,0,0,0,0,0,0,0,0,0,0,0,0,0,0,0,0,0,0,0,0,0,0,0,0,0,0,0,0,0,0,0,0,0,0,0,0,0,0,0,0,0,0,0,0,0,0,0,0,0,0,0,0,0,0,0,0,0,0,0,0,0,0,0,0,0,0,0,0,0,0,0,0,0,0,0,0,0,0,0,0,0,0,0,0,0,0,0,0,0,0,0,0,0,0,0,0,0,0,0,0,0,0,0,0,0,0,0,0,0,0,0,0,0,0,0,0,0,0,0,0,0,0,0,0,0,0,0,0,0,0,0,0,0,0,0,0,0,0,0,0,0,0,0,0,0,0,0,0,0,0,0,0,0,0,0,0],"sum_hessian":[9.046E3,5.149E3,3.897E3,2.917E3,2.232E3,1.858E3,2.039E3,1.684E3,1.233E3,1.268E3,9.64E2,9.76E2,8.82E2,1.349E3,6.9E2,1.032E3,6.52E2,6.15E2,6.18E2,5.98E2,6.7E2,3.82E2,5.82E2,4.96E2,4.8E2,3.35E2,5.47E2,6.4E2,7.09E2,2.71E2,4.19E2,4.4E2,5.92E2,3.77E2,2.75E2,3.87E2,2.28E2,2.33E2,3.85E2,4.31E2,1.67E2,3.99E2,2.71E2,2.63E2,1.19E2,3.19E2,2.63E2,3.05E2,1.91E2,2.94E2,1.86E2,2.29E2,1.06E2,2.86E2,2.61E2,3.56E2,2.84E2,3.92E2,3.17E2,8.9E1,1.82E2,2.17E2,2.02E2,1.99E2,1.88E2,1.28E2,1E2,2.15E2,1.8E1,2.28E2,1.57E2,1.08E2,3.23E2,9.5E1,7.2E1,1.72E2,2.27E2,1.84E2,8.7E1,1.34E2,1.29E2,5.2E1,6.7E1,2.18E2,1.01E2,2.25E2,3.8E1,9.3E1,2.12E2,5.5E1,1.36E2,8.2E1,2.12E2,1.06E2,8E1,1.42E2,8.7E1,5.7E1,4.9E1,1.34E2,1.52E2,1.15E2,1.46E2,1.39E2,2.17E2,1.24E2,1.6E2,1.59E2,2.33E2,1.56E2,1.61E2,8.4E1,9.8E1,1.26E2,9.1E1,9.1E1,1.11E2,1.69E2,5.9E1,1.42E2,1.5E1,5.6E1,5.2E1,1.77E2,1.46E2,4.8E1,4.7E1,2.4E1,4.8E1,1.21E2,5.1E1,1.83E2,4.4E1,1.6E2,2.4E1,6.4E1,2.3E1,3.7E1,9.7E1,6E1,6.9E1,2.5E1,2.7E1,2.9E1,3.8E1,1.32E2,8.6E1,5.8E1,4.3E1,1.5E2,7.5E1,2.7E1,1.1E1,4.7E1,4.6E1,9.1E1,1.21E2,2.1E1,3.4E1,7.4E1,6.2E1,2.4E1,5.8E1,1.04E2,1.08E2,2.5E1,8.1E1,4E1,4E1,9.2E1,5E1,2.2E1,6.5E1,2E1,3.7E1,3.5E1,1.4E1,6.6E1,6.8E1,8.1E1,7.1E1,8.8E1,2.7E1,8.5E1,6.1E1,4.7E1,9.2E1,1.16E2,1.01E2,3E1,9.4E1,1.22E2,3.7E1,1.13E2,1.2E2,7.4E1,8.2E1,6E1,1.01E2,6.1E1,6.5E1,1.02E2,7.5E1,8.3E1,6.3E1,3.6E1,1.1E1,3.4E1,1.4E1,1.41E2,4.2E1,2.4E1,2E1,9.1E1,6.9E1,1E1,1.4E1,4.4E1,2E1,1E1,1.3E1,2.5E1,1.2E1,5.3E1,4.4E1,4.4E1,1.6E1,4.5E1,2.4E1,1.6E1,1.1E1,1.9E1,1E1,2.8E1,1E1,1.04E2,2.8E1,4.7E1,3.9E1,3.6E1,2.2E1,3.1E1,1.2E1,9.1E1,5.9E1,3.1E1,4.4E1,1.3E1,1.4E1,1.8E1,2.9E1,3.2E1,1.4E1,3.6E1,5.5E1,5.7E1,6.4E1,1.1E1,1E1,1.5E1,1.9E1,4.3E1,3.1E1,1.5E1,4.7E1,1.2E1,1.2E1,1.8E1,4E1,4.9E1,5.5E1,4.5E1,6.3E1,1.1E1,1.4E1,3.1E1,5E1,2.4E1,1.6E1,1.9E1,7.3E1,1.4E1,3.6E1,3.7E1,2.9E1,2.6E1,5.5E1,5.4E1,3.4E1,2.3E1,2.4E1,1.2E1,8E1,1.2E1,1.1E2,2E1,1.7E1,5.3E1,6E1,1.9E1,5.5E1,1.2E1,7E1,5.3E1,4.9E1,4.7E1,3.6E1,6.8E1,7.3E1,1.8E1,2.4E1,2.9E1,6.2E1,2.3E1,4.6E1,2.2E1,2.2E1,1E1,1E1,3.4E1,1E1,3.3E1,1.2E1,1.3E1,1.1E1,1.4E1,1.4E1,6E1,4.4E1,1.7E1,1.1E1,2.3E1,2.4E1,1.2E1,2.7E1,1.5E1,2.1E1,1.2E1,1E1,2.1E1,1E1,5.5E1,3.6E1,2.6E1,3.3E1,1.3E1,1.8E1,2.6E1,1.8E1,1E1,1.9E1,1.1E1,2.1E1,2.2E1,1.4E1,2.5E1,3E1,3.8E1,1.9E1,1.9E1,4.5E1,1E1,3.3E1,1.3E1,1.8E1,2.8E1,1.2E1,2.1E1,2.8E1,1E1,3.5E1,3.8E1,2.5E1,1.8E1,5.5E1,1.9E1,1.8E1,1E1,1.3E1,2.5E1,3.7E1,1E1,1.3E1,2.6E1,2E1,1.1E1,1.1E1,4E1,2E1,2.4E1,2E1,1.3E1,1E1,1.1E1,1.3E1,1.5E1,1.2E1,1E1,1.1E1,1E1,1.1E1,2.5E1,3E1,1.8E1,1.8E1,1.2E1,1.4E1,1.6E1,1.7E1,1.2E1,1.4E1,1.1E1,1E1,1.2E1,1E1,1E1,1.5E1,1.9E1,1.1E1,2.2E1,1.6E1,2.2E1,2.3E1,1.3E1,2E1,1.8E1,1E1,1.1E1,1E1,1.5E1,1.3E1,2E1,1.5E1,2.2E1,1.6E1],"tree_param":{"num_deleted":"0","num_feature":"6","num_nodes":"435","size_leaf_vector":"1"}},{"base_weights":[3.546486E-1,-3.6836815E1,4.891405E1,-5.3118187E1,-1.5619098E1,2.4045279E1,7.1450645E1,-6.08103E1,-4.2612946E1,-2.627768E1,-7.8786325E0,1.3599634E1,3.5065815E1,5.677781E1,8.611099E1,-6.458315E1,-5.473079E1,-4.6649353E1,-3.6886333E1,-3.0859259E1,-1.9582855E1,-1.4249666E1,1.6314517E0,7.193017E0,2.2943342E1,2.8018656E1,4.509565E1,4.9794823E1,7.289465E1,7.922975E1,1.0451483E2,-6.7874794E0,-6.21372E0,-5.641535E0,-5.028854E0,-4.9432156E1,-4.161073E1,-3.9884735E1,-3.1796745E1,-3.3746563E1,-2.2385368E1,-2.3213938E1,-1.3709501E1,-1.8767313E1,-6.0197306E0,-5.4681973E0,7.681936E0,1.6675854E0,1.55471325E1,1.4666585E1,2.9961874E1,2.275584E1,3.893215E1,3.6047203E1,5.4916103E1,3.950342E1,5.711111E1,6.604306E1,8.875691E1,6.897339E1,8.952146E1,1.1850662E2,8.799702E1,-5.237537E0,-4.6092144E1,-4.4988084E0,-3.6890717E0,-4.1488163E1,-3.443976E0,-3.4449844E0,-2.6001366E1,-4.0869784E0,-3.16377E1,-2.6857738E0,-1.9108824E1,-2.5092339E1,-1.5799576E1,-9.100531E0,-1.6662632E1,-2.7353758E1,-1.6191698E1,-1.3700319E1,-2.4333954E0,-1.0722628E1,-1.6486914E0,3.84112E0,1.4963479E1,-9.304389E0,4.932183E0,1.054136E1,2.0548176E1,9.332435E0,2.0015745E1,2.5627117E1,3.8385624E1,2.0242867E1,3.259639E1,4.558091E1,3.191232E1,3.0798395E1,4.410464E0,4.7673378E1,6.71503E1,2.8652176E1,4.4194874E1,4.8280155E1,6.327217E1,7.52775E1,5.6877335E1,1.0125621E1,7.5710526E0,6.380103E1,8.088682E0,8.232998E1,9.940625E0,9.993703E0,1.2863179E1,7.1750727E0,9.603962E0,-4.870771E0,-4.1665597E0,-4.386131E0,-3.8335042E0,-2.7971513E0,-2.118755E0,-3.432535E1,-2.8838392E1,-2.0623436E1,-1.5234864E0,-2.7078557E0,-2.1521812E1,-1.8703526E0,-1.2633117E0,-1.351993E1,-2.3725758E0,-1.946998E0,-1.2382507E1,-3.3460624E0,-2.1975916E1,-1.8104229E1,-9.454619E0,-1.6641115E1,-9.276512E0,-6.8803616E0,2.4853048E0,-1.27862835E1,-4.6695495E0,-7.1686068E0,2.6343913E0,6.8545403E0,9.12671E-3,1.0845206E1,2.1831177E1,-1.4285925E1,-3.2635655E0,1.3617834E0,8.62943E0,5.392776E0,1.4020634E1,1.717448E1,2.4110622E1,5.32493E0,1.37752905E1,2.4894743E1,1.4217404E0,1.5733266E1,2.9526264E1,4.4868263E1,2.846259E1,1.54217E1,2.3780361E1,2.0998466E0,3.4128335E0,3.8305156E0,5.22911E0,2.2893298E0,3.6496181E0,2.6834305E1,3.6156445E0,5.4177055E1,4.1937118E0,7.55646E0,5.3132553E0,1.3988752E0,3.0832865E1,3.842777E1,4.923238E0,2.5434432E0,4.9796707E1,5.477908E1,6.791007E1,5.6517825E0,8.066792E0,4.1056547E0,6.0424824E1,5.5439476E1,6.906568E1,7.058348E0,8.680056E0,-3.8093262E0,-2.953349E0,-3.20831E0,-2.6636786E0,-2.2071226E0,-1.5353056E0,-2.261122E1,-1.594728E0,-1.5066357E0,-8.6356544E-1,-5.644226E-1,2.3044546E-1,-1.455647E0,-8.48353E-1,-2.3011444E0,-1.4988755E0,-2.095508E1,-1.4737162E1,-1.2966898E1,-5.888339E0,-1.825016E0,-9.130937E-1,-5.741555E-1,-1.1994147E0,-9.999373E0,-3.216787E0,-2.0603673E0,6.5056925E0,-1.4138701E1,-7.0001E-1,-6.9430554E-1,-2.3878744E-1,-9.718087E0,-5.3828727E-2,3.682936E-1,7.239579E0,4.0350504E0,1.5049376E1,-3.4916933E0,4.361251E0,7.7406826E0,1.8004006E0,2.894737E0,1.1571487E0,-2.1168258E0,-1.023348E1,-5.9741917E0,3.6864778E-1,-2.5773203E0,4.505514E0,5.6516285E0,1.328088E1,1.2735945E0,1.2187324E0,9.1148405E0,1.6660866E1,1.3035309E1,2.1587243E0,1.8605727E0,2.583948E0,8.29065E-2,8.053716E0,1.8418407E0,1.0031007E1,1.965893E0,3.2978005E0,1.2129607E0,1.9090809E0,2.5079529E1,3.6121476E0,3.507677E0,4.993439E0,2.0807402E0,3.241008E0,1.2307406E1,1.9218197E1,2.042668E1,2.8552202E1,2.157341E0,2.9397514E0,4.5518966E0,6.2361813E0,2.501256E1,3.5394704E0,3.3765275E0,4.1798167E0,4.4158733E1,5.6219954E0,4.84606E0,6.042699E0,6.2043915E0,7.41523E0,4.94527E0,6.383165E0,4.4523044E0,5.7841277E0,5.835109E0,7.1901474E0,-2.5413435E0,-1.8556406E0,-2.2656664E1,-1.2546031E1,-1.6229488E1,-1.0456274E1,-1.8335027E0,-8.751776E0,-7.8608093E0,-3.4689012E0,-1.192465E0,-6.9696813E0,-5.677216E0,4.432566E-1,-3.9602313E0,1.0782619E-1,1.4113106E0,1.4207048E0,-1.659084E1,-9.260523E0,-1.1973866E1,-4.5586577E-1,-2.1357138E0,3.3583708E0,3.93954E-1,9.396972E-1,1.2809354E0,9.822536E0,1.0793118E0,1.7451088E0,-5.4947314E0,-7.0593515E-3,1.1436869E-1,7.0389956E-1,5.3452816E0,1.046767E0,-1.2903417E0,-6.451161E-1,-9.362077E-1,-1.605541E-1,-8.576096E0,1.0265039E0,8.134494E-1,7.3200417E0,2.3215387E0,8.843874E0,6.373291E-1,1.579013E1,-1.5735227E-1,4.4154212E-1,5.9631765E-1,1.0711933E0,1.1682706E0,1.8428644E0,1.0301594E0,1.5811243E0,4.7552744E-1,1.3618585E0,7.037484E-1,1.2483184E0,2.1847017E0,3.011071E0,1.5518268E0,1.0378678E1,2.2034786E0,1.6326815E0,1.5805852E1,2.3320816E0,2.5939977E0,3.5094163E0,1.8031826E0,3.0137389E0,4.8684044E0,3.8790157E0,-2.5498211E0,-1.9471835E0,-1.5492768E0,-8.762892E-1,-1.9011711E0,-1.4919841E0,-1.1493967E0,-6.7699707E-1,-1.351941E0,-3.6995605E-1,-9.4566995E-1,-5.4768616E-1,-1.8301448E-1,-4.6820197E-1,-9.2053664E-1,-4.541819E-1,-2.497293E-1,-8.096291E-1,-6.4801764E-1,-7.479694E-2,-1.6592567E-1,3.0295572E-1,-1.8572146E0,-1.3050864E0,-7.0445126E-1,-1.0836123E0,-1.4907825E0,-8.046053E-1,-5.655907E-1,1.7615397E-1,2.0504923E-1,4.8365346E-1,-1.4081885E-1,5.922856E-1,7.285791E-1,1.2388778E0,-6.5923804E-1,-3.8477942E-1,2.6346692E-1,7.480473E-1,-1.3228091E0,-3.980092E-1,-1.757504E-1,3.2576692E-1,-2.3447352E-2,2.754181E-1,5.322427E-1,8.9849275E-1,-1.8822806E-1,5.6933224E-1,6.586318E-1,1.0025257E0,1.3063405E0,1.9609457E0,7.147369E-1,1.2079219E0,1.2548113E0,1.9452387E0],"categories":[],"categories_nodes":[],"categories_segments":[],"categories_sizes":[],"default_left":[0,0,0,0,0,0,0,0,0,0,0,0,0,0,0,0,0,0,0,0,0,0,0,0,0,0,0,0,0,0,0,0,0,0,0,0,0,0,0,0,0,0,0,0,0,0,0,0,0,0,0,0,0,0,0,0,0,0,0,0,0,0,0,0,0,0,0,0,0,0,0,0,0,0,0,0,0,0,0,0,0,0,0,0,0,0,0,0,0,0,0,0,0,0,0,0,0,0,0,0,0,0,0,0,0,0,0,0,0,0,0,0,0,0,0,0,0,0,0,0,0,0,0,0,0,0,0,0,0,0,0,0,0,0,0,0,0,0,0,0,0,0,0,0,0,0,0,0,0,0,0,0,0,0,0,0,0,0,0,0,0,0,0,0,0,0,0,0,0,0,0,0,0,0,0,0,0,0,0,0,0,0,0,0,0,0,0,0,0,0,0,0,0,0,0,0,0,0,0,0,0,0,0,0,0,0,0,0,0,0,0,0,0,0,0,0,0,0,0,0,0,0,0,0,0,0,0,0,0,0,0,0,0,0,0,0,0,0,0,0,0,0,0,0,0,0,0,0,0,0,0,0,0,0,0,0,0,0,0,0,0,0,0,0,0,0,0,0,0,0,0,0,0,0,0,0,0,0,0,0,0,0,0,0,0,0,0,0,0,0,0,0,0,0,0,0,0,0,0,0,0,0,0,0,0,0,0,0,0,0,0,0,0,0,0,0,0,0,0,0,0,0,0,0,0,0,0,0,0,0,0,0,0,0,0,0,0,0,0,0,0,0,0,0,0,0,0,0,0,0,0,0,0,0,0,0,0,0,0,0,0,0,0,0,0,0,0,0,0,0,0,0,0,0,0,0,0,0,0,0,0,0,0,0,0,0,0,0,0,0,0,0,0,0,0,0,0,0,0,0,0,0,0,0,0,0,0,0,0,0,0,0,0,0,0,0,0,0,0,0,0,0,0,0,0,0,0,0,0],"id":2,"left_children":[1,3,5,7,9,11,13,15,17,19,21,23,25,27,29,31,33,35,37,39,41,43,45,47,49,51,53,55,57,59,61,-1,-1,-1,-1,63,65,67,69,71,73,75,77,79,81,83,85,87,89,91,93,95,97,99,101,103,105,107,109,111,113,115,117,-1,119,-1,-1,121,-1,-1,123,-1,125,-1,127,129,131,133,135,137,139,141,143,145,147,149,151,153,155,157,159,161,163,165,167,169,171,173,175,177,-1,179,181,183,185,187,189,191,193,-1,-1,195,-1,197,-1,-1,-1,-1,-1,-1,-1,-1,-1,-1,-1,199,201,203,-1,-1,205,-1,-1,207,209,-1,211,-1,213,215,217,219,221,223,225,227,229,231,233,235,237,239,241,243,245,247,249,251,253,255,257,259,261,263,-1,265,267,269,271,273,275,-1,-1,-1,-1,-1,-1,277,-1,279,-1,-1,-1,-1,281,283,-1,-1,285,287,289,-1,-1,-1,291,293,295,-1,-1,-1,-1,-1,-1,-1,-1,297,-1,-1,-1,-1,-1,-1,-1,-1,-1,299,301,303,305,-1,-1,-1,-1,307,309,311,313,315,-1,-1,-1,317,-1,319,321,323,325,327,329,331,-1,-1,-1,-1,333,335,-1,337,339,341,343,345,-1,347,349,351,-1,-1,-1,-1,353,-1,355,-1,-1,-1,-1,357,-1,-1,-1,-1,-1,359,361,363,365,-1,-1,-1,-1,367,-1,-1,-1,369,-1,-1,-1,-1,-1,-1,-1,-1,-1,-1,-1,-1,-1,371,373,375,377,-1,379,381,383,-1,385,387,-1,389,-1,391,-1,393,395,397,-1,399,401,-1,-1,403,405,-1,-1,407,-1,-1,-1,409,-1,-1,-1,-1,-1,411,413,415,417,419,421,-1,423,-1,-1,-1,-1,-1,-1,-1,-1,-1,-1,-1,-1,-1,-1,-1,425,-1,-1,427,-1,-1,-1,-1,-1,-1,-1,-1,-1,-1,-1,-1,-1,-1,-1,-1,-1,-1,-1,-1,-1,-1,-1,-1,-1,-1,-1,-1,-1,-1,-1,-1,-1,-1,-1,-1,-1,-1,-1,-1,-1,-1,-1,-1,-1,-1,-1,-1,-1,-1,-1,-1,-1,-1,-1,-1,-1,-1,-1,-1,-1,-1,-1,-1,-1],"loss_changes":[1.6252148E7,1.759603E6,2.185747E6,2.30376E5,1.8245331E5,2.132945E5,4.35438E5,3.4587E4,2.6526E4,2.7952125E4,7.781961E4,5.700275E4,6.256225E4,1.1184E5,1.21147E5,3.9945E3,1.974625E3,7.940375E3,6.51475E3,1.27256875E4,7.8071875E3,2.8478406E4,2.220746E4,2.6193006E4,2.2099766E4,2.9727312E4,3.0987438E4,5.1880875E4,2.7612125E4,7.27805E4,5.312825E4,0E0,0E0,0E0,0E0,2.049E3,2.4850625E3,1.33875E3,2.0871562E3,4.850875E3,1.5822969E3,2.8625E3,1.8627734E3,1.0526328E4,7.514037E3,4.7588213E3,7.745336E3,1.2331835E4,5.4410977E3,4.9491836E3,6.6479062E3,8.2920625E3,6.573203E3,6.9308438E3,1.2393875E4,1.4107969E4,1.968775E4,1.42546875E4,7.0101875E3,1.8193625E4,1.8118E4,1.4595875E4,1.009525E4,0E0,5.2928125E2,0E0,0E0,1.144375E2,0E0,0E0,2.3804688E1,0E0,1.4176562E3,0E0,1.9041602E2,7.2921094E2,2.2347754E2,1.7519341E3,8.2831836E2,2.9757812E3,4.7766094E3,9.7745605E2,4.1292793E3,1.1894414E3,3.3051584E3,2.1246604E3,2.4784102E3,2.330691E3,3.4864214E3,1.9844238E3,9.319961E2,1.564686E3,2.163879E3,4.9748984E3,3.1615312E3,4.5962344E3,5.626094E2,2.1956562E3,2.7612266E3,1.6210234E3,0E0,1.9809531E3,3.415875E3,2.574461E3,4.1799375E3,4.8312812E3,5.8518125E3,6.159875E3,3.9173125E3,0E0,0E0,8.0125E3,0E0,5.426375E3,0E0,0E0,0E0,0E0,0E0,0E0,0E0,0E0,0E0,0E0,0E0,1.7277188E3,3.098125E2,1.1133008E2,0E0,0E0,7.059375E1,0E0,0E0,1.4180664E2,3.9554703E2,0E0,1.9860645E2,0E0,1.10916016E2,2.5516953E3,1.0133877E3,4.4965332E2,2.8658374E2,1.0990806E3,1.6581869E3,4.8010352E2,1.2348071E2,1.0259045E3,8.2176245E2,2.3191162E3,1.2645803E3,1.2385659E3,2.2203828E3,9.826572E2,7.190657E2,1.6957656E3,1.725584E3,1.3279012E3,7.289053E2,8.3277734E2,1.4130859E1,6.067357E2,5.6280615E2,1.3408418E3,0E0,2.7661328E2,2.0268047E3,2.3266406E2,2.3219336E2,1.2532227E3,2.0733047E3,0E0,0E0,0E0,0E0,0E0,0E0,3.6367188E2,0E0,7.045625E2,0E0,0E0,0E0,0E0,1.2653438E3,1.9154688E2,0E0,0E0,3.4565E3,3.1909375E2,1.0018125E3,0E0,0E0,0E0,2.449375E2,2.8265625E2,6.963125E2,0E0,0E0,0E0,0E0,0E0,0E0,0E0,0E0,1.7608008E2,0E0,0E0,0E0,0E0,0E0,0E0,0E0,0E0,0E0,1.9908359E3,7.246875E2,8.1251074E2,1.8748376E2,0E0,0E0,0E0,0E0,2.2603711E2,9.09737E2,2.6067783E2,1.8631643E3,5.5211523E2,0E0,0E0,0E0,4.5751074E2,0E0,4.1147992E2,1.4808667E2,1.2306914E3,7.742871E1,3.1483142E2,3.107348E2,2.3799756E2,0E0,0E0,0E0,0E0,2.0961621E2,3.845818E2,0E0,1.3275337E3,7.837932E2,8.4053613E2,7.6600684E2,2.8424738E2,0E0,6.69939E1,1.6311621E2,9.5132324E1,0E0,0E0,0E0,0E0,5.0425708E2,0E0,1.03006836E2,0E0,0E0,0E0,0E0,3.6676172E2,0E0,0E0,0E0,0E0,0E0,2.8482715E2,8.81543E1,9.8210156E2,2.1753906E2,0E0,0E0,0E0,0E0,8.517949E2,0E0,0E0,0E0,3.46625E2,0E0,0E0,0E0,0E0,0E0,0E0,0E0,0E0,0E0,0E0,0E0,0E0,0E0,6.8903125E2,1.8752832E2,8.8009766E1,7.137109E1,0E0,5.7624927E2,3.951538E1,3.516736E1,0E0,8.303345E1,2.5671008E2,0E0,2.1371057E2,0E0,1.5409485E2,0E0,2.4141602E1,4.7875977E-1,2.2577197E2,0E0,4.2153564E2,3.8414185E1,0E0,0E0,6.824062E2,7.2485596E1,0E0,0E0,2.7058899E1,0E0,0E0,0E0,1.3077094E2,0E0,0E0,0E0,0E0,0E0,4.391046E2,2.4797708E2,6.979285E1,9.5187744E1,5.9186554E2,4.3318848E1,0E0,1.1874707E2,0E0,0E0,0E0,0E0,0E0,0E0,0E0,0E0,0E0,0E0,0E0,0E0,0E0,0E0,0E0,1.7742432E2,0E0,0E0,2.5484668E2,0E0,0E0,0E0,0E0,0E0,0E0,0E0,0E0,0E0,0E0,0E0,0E0,0E0,0E0,0E0,0E0,0E0,0E0,0E0,0E0,0E0,0E0,0E0,0E0,0E0,0E0,0E0,0E0,0E0,0E0,0E0,0E0,0E0,0E0,0E0,0E0,0E0,0E0,0E0,0E0,0E0,0E0,0E0,0E0,0E0,0E0,0E0,0E0,0E0,0E0,0E0,0E0,0E0,0E0,0E0,0E0,0E0,0E0,0E0,0E0,0E0,0E0,0E0,0E0,0E0],"parents":[2147483647,0,0,1,1,2,2,3,3,4,4,5,5,6,6,7,7,8,8,9,9,10,10,11,11,12,12,13,13,14,14,15,15,16,16,17,17,18,18,19,19,20,20,21,21,22,22,23,23,24,24,25,25,26,26,27,27,28,28,29,29,30,30,35,35,36,36,37,37,38,38,39,39,40,40,41,41,42,42,43,43,44,44,45,45,46,46,47,47,48,48,49,49,50,50,51,51,52,52,53,53,54,54,55,55,56,56,57,57,58,58,59,59,60,60,61,61,62,62,64,64,67,67,70,70,72,72,74,74,75,75,76,76,77,77,78,78,79,79,80,80,81,81,82,82,83,83,84,84,85,85,86,86,87,87,88,88,89,89,90,90,91,91,92,92,93,93,94,94,95,95,96,96,97,97,98,98,99,99,101,101,102,102,103,103,104,104,105,105,106,106,107,107,108,108,111,111,113,113,125,125,126,126,127,127,130,130,133,133,134,134,136,136,138,138,139,139,140,140,141,141,142,142,143,143,144,144,145,145,146,146,147,147,148,148,149,149,150,150,151,151,152,152,153,153,154,154,155,155,156,156,157,157,158,158,159,159,160,160,161,161,162,162,163,163,165,165,166,166,167,167,168,168,169,169,170,170,177,177,179,179,184,184,185,185,188,188,189,189,190,190,194,194,195,195,196,196,205,205,215,215,216,216,217,217,218,218,223,223,224,224,225,225,226,226,227,227,231,231,233,233,234,234,235,235,236,236,237,237,238,238,239,239,244,244,245,245,247,247,248,248,249,249,250,250,251,251,253,253,254,254,255,255,260,260,262,262,267,267,273,273,274,274,275,275,276,276,281,281,285,285,299,299,300,300,301,301,302,302,304,304,305,305,306,306,308,308,309,309,311,311,313,313,315,315,316,316,317,317,319,319,320,320,323,323,324,324,327,327,331,331,337,337,338,338,339,339,340,340,341,341,342,342,344,344,360,360,363,363],"right_children":[2,4,6,8,10,12,14,16,18,20,22,24,26,28,30,32,34,36,38,40,42,44,46,48,50,52,54,56,58,60,62,-1,-1,-1,-1,64,66,68,70,72,74,76,78,80,82,84,86,88,90,92,94,96,98,100,102,104,106,108,110,112,114,116,118,-1,120,-1,-1,122,-1,-1,124,-1,126,-1,128,130,132,134,136,138,140,142,144,146,148,150,152,154,156,158,160,162,164,166,168,170,172,174,176,178,-1,180,182,184,186,188,190,192,194,-1,-1,196,-1,198,-1,-1,-1,-1,-1,-1,-1,-1,-1,-1,-1,200,202,204,-1,-1,206,-1,-1,208,210,-1,212,-1,214,216,218,220,222,224,226,228,230,232,234,236,238,240,242,244,246,248,250,252,254,256,258,260,262,264,-1,266,268,270,272,274,276,-1,-1,-1,-1,-1,-1,278,-1,280,-1,-1,-1,-1,282,284,-1,-1,286,288,290,-1,-1,-1,292,294,296,-1,-1,-1,-1,-1,-1,-1,-1,298,-1,-1,-1,-1,-1,-1,-1,-1,-1,300,302,304,306,-1,-1,-1,-1,308,310,312,314,316,-1,-1,-1,318,-1,320,322,324,326,328,330,332,-1,-1,-1,-1,334,336,-1,338,340,342,344,346,-1,348,350,352,-1,-1,-1,-1,354,-1,356,-1,-1,-1,-1,358,-1,-1,-1,-1,-1,360,362,364,366,-1,-1,-1,-1,368,-1,-1,-1,370,-1,-1,-1,-1,-1,-1,-1,-1,-1,-1,-1,-1,-1,372,374,376,378,-1,380,382,384,-1,386,388,-1,390,-1,392,-1,394,396,398,-1,400,402,-1,-1,404,406,-1,-1,408,-1,-1,-1,410,-1,-1,-1,-1,-1,412,414,416,418,420,422,-1,424,-1,-1,-1,-1,-1,-1,-1,-1,-1,-1,-1,-1,-1,-1,-1,426,-1,-1,428,-1,-1,-1,-1,-1,-1,-1,-1,-1,-1,-1,-1,-1,-1,-1,-1,-1,-1,-1,-1,-1,-1,-1,-1,-1,-1,-1,-1,-1,-1,-1,-1,-1,-1,-1,-1,-1,-1,-1,-1,-1,-1,-1,-1,-1,-1,-1,-1,-1,-1,-1,-1,-1,-1,-1,-1,-1,-1,-1,-1,-1,-1,-1,-1,-1],"split_conditions":[1.8E1,1.1E1,2.4E1,7E0,1.4E1,1.01E2,1.07E2,5E0,9E1,9.4E1,9.7E1,4.6E1,2.2E1,5.3E1,5.6E1,3E0,8.9E1,4.9E1,1E1,5.6E1,4.5E1,4.8E1,3.9E1,2.1E1,2E1,5.1E1,4.1E1,2.6E1,2.8E1,2.8E1,1E0,-6.7874794E0,-6.21372E0,-5.641535E0,-5.028854E0,1E0,9E0,5.3E1,5.4E1,8.7E1,8.9E1,1E2,1E0,9E1,9.1E1,1.6E1,1.7E1,9.4E1,9.8E1,9.7E1,6.5E1,1.07E2,1E0,1.06E2,1.07E2,1.01E2,1.03E2,1E0,1E0,1.12E2,1.12E2,2.7E1,2.7E1,-5.237537E0,9E0,-4.4988084E0,-3.6890717E0,9E0,-3.443976E0,-3.4449844E0,1.81E2,-4.0869784E0,1E0,-2.6857738E0,1.3E1,1.3E1,1.3E1,6.5E1,1.3E1,1E0,1.7E1,6.3E1,1.6E1,1.02E2,1E2,1E0,6.1E1,1E0,9.8E1,1E0,3.1E1,6.1E1,1E0,9.6E1,1E0,2E1,1.9E1,2E1,2E1,3.2E1,4.410464E0,1E0,1E0,9.5E1,3.4E1,9.6E1,3E1,1E2,1E2,1.0125621E1,7.5710526E0,3.1E1,8.088682E0,2.8E1,9.940625E0,9.993703E0,1.2863179E1,7.1750727E0,9.603962E0,-4.870771E0,-4.1665597E0,-4.386131E0,-3.8335042E0,-2.7971513E0,-2.118755E0,3.3E1,1.2E1,1.86E2,-1.5234864E0,-2.7078557E0,3.5E1,-1.8703526E0,-1.2633117E0,1.3E1,1.3E1,-1.946998E0,9.8E1,-3.3460624E0,1.7E1,1E0,1E0,1.7E1,1E0,6.3E1,6.2E1,3.4E1,2.8E1,3.3E1,1.04E2,6.6E1,1.6E1,1.03E2,1E0,2.7E1,2E1,1E0,2E1,1.91E2,9.5E1,1E0,2.2E1,9.4E1,1E0,6.8E1,1.4217404E0,5.4E1,1.8E2,9.6E1,9.7E1,3.5E1,3.4E1,2.0998466E0,3.4128335E0,3.8305156E0,5.22911E0,2.2893298E0,3.6496181E0,1.03E2,3.6156445E0,5.8E1,4.1937118E0,7.55646E0,5.3132553E0,1.3988752E0,3.2E1,1E0,4.923238E0,2.5434432E0,3.5E1,2.8E1,2.8E1,5.6517825E0,8.066792E0,4.1056547E0,2.5E1,2.5E1,2.5E1,7.058348E0,8.680056E0,-3.8093262E0,-2.953349E0,-3.20831E0,-2.6636786E0,-2.2071226E0,-1.5353056E0,1E0,-1.594728E0,-1.5066357E0,-8.6356544E-1,-5.644226E-1,2.3044546E-1,-1.455647E0,-8.48353E-1,-2.3011444E0,-1.4988755E0,4E1,1.6E1,9.4E1,9.5E1,-1.825016E0,-9.130937E-1,-5.741555E-1,-1.1994147E0,1.5E1,1.87E2,1.7E1,1.81E2,1E0,-7.0001E-1,-6.9430554E-1,-2.3878744E-1,1E0,-5.3828727E-2,1E0,1.7E1,1.92E2,1.5E1,1E2,5.5E1,4.8E1,1.8004006E0,2.894737E0,1.1571487E0,-2.1168258E0,1.87E2,9.2E1,3.6864778E-1,2.9E1,1.9E1,1E0,2.5E1,3E1,1.2187324E0,2.2E1,2.2E1,1.88E2,2.1587243E0,1.8605727E0,2.583948E0,8.29065E-2,1.83E2,1.8418407E0,1.9E1,1.965893E0,3.2978005E0,1.2129607E0,1.9090809E0,2.2E1,3.6121476E0,3.507677E0,4.993439E0,2.0807402E0,3.241008E0,1.69E2,1E0,1.03E2,1.88E2,2.157341E0,2.9397514E0,4.5518966E0,6.2361813E0,1E0,3.5394704E0,3.3765275E0,4.1798167E0,1.71E2,5.6219954E0,4.84606E0,6.042699E0,6.2043915E0,7.41523E0,4.94527E0,6.383165E0,4.4523044E0,5.7841277E0,5.835109E0,7.1901474E0,-2.5413435E0,-1.8556406E0,9.4E1,9.4E1,9.3E1,3.6E1,-1.8335027E0,2.9E1,3.4E1,1.6E2,-1.192465E0,9.5E1,1E0,4.432566E-1,9.5E1,1.0782619E-1,9.3E1,1.4207048E0,2.7E1,1.67E2,1.84E2,-4.5586577E-1,2.8E1,3.1E1,3.93954E-1,9.396972E-1,1.01E2,1.01E2,1.0793118E0,1.7451088E0,5.9E1,-7.0593515E-3,1.1436869E-1,7.0389956E-1,1E2,1.046767E0,-1.2903417E0,-6.451161E-1,-9.362077E-1,-1.605541E-1,1.9E1,3.5E1,3.5E1,2E1,3E1,1.9E1,6.373291E-1,3.9E1,-1.5735227E-1,4.4154212E-1,5.9631765E-1,1.0711933E0,1.1682706E0,1.8428644E0,1.0301594E0,1.5811243E0,4.7552744E-1,1.3618585E0,7.037484E-1,1.2483184E0,2.1847017E0,3.011071E0,1.5518268E0,2.6E1,2.2034786E0,1.6326815E0,1E0,2.3320816E0,2.5939977E0,3.5094163E0,1.8031826E0,3.0137389E0,4.8684044E0,3.8790157E0,-2.5498211E0,-1.9471835E0,-1.5492768E0,-8.762892E-1,-1.9011711E0,-1.4919841E0,-1.1493967E0,-6.7699707E-1,-1.351941E0,-3.6995605E-1,-9.4566995E-1,-5.4768616E-1,-1.8301448E-1,-4.6820197E-1,-9.2053664E-1,-4.541819E-1,-2.497293E-1,-8.096291E-1,-6.4801764E-1,-7.479694E-2,-1.6592567E-1,3.0295572E-1,-1.8572146E0,-1.3050864E0,-7.0445126E-1,-1.0836123E0,-1.4907825E0,-8.046053E-1,-5.655907E-1,1.7615397E-1,2.0504923E-1,4.8365346E-1,-1.4081885E-1,5.922856E-1,7.285791E-1,1.2388778E0,-6.5923804E-1,-3.8477942E-1,2.6346692E-1,7.480473E-1,-1.3228091E0,-3.980092E-1,-1.757504E-1,3.2576692E-1,-2.3447352E-2,2.754181E-1,5.322427E-1,8.9849275E-1,-1.8822806E-1,5.6933224E-1,6.586318E-1,1.0025257E0,1.3063405E0,1.9609457E0,7.147369E-1,1.2079219E0,1.2548113E0,1.9452387E0],"split_indices":[3,3,3,3,3,4,4,3,4,4,4,1,3,1,1,3,4,1,3,1,1,1,1,3,3,1,1,3,3,3,0,0,0,0,0,0,3,1,1,4,4,4,0,4,4,3,3,4,4,4,1,4,0,4,4,4,4,0,0,4,4,3,3,0,3,0,0,3,0,0,2,0,0,0,3,3,3,1,3,0,3,1,3,4,4,0,1,0,4,0,1,1,0,4,0,3,3,3,3,1,0,0,0,4,1,4,1,4,4,0,0,1,0,1,0,0,0,0,0,0,0,0,0,0,0,1,3,2,0,0,1,0,0,3,3,0,4,0,3,0,0,3,0,1,1,1,1,1,4,1,3,4,0,1,3,0,3,2,4,0,3,4,0,1,0,1,2,4,4,1,1,0,0,0,0,0,0,4,0,1,0,0,0,0,1,0,0,0,1,3,3,0,0,0,3,3,3,0,0,0,0,0,0,0,0,0,0,0,0,0,0,0,0,0,0,1,3,4,4,0,0,0,0,3,2,3,2,0,0,0,0,0,0,0,3,2,3,4,1,1,0,0,0,0,2,4,0,1,3,0,1,1,0,3,3,2,0,0,0,0,2,0,3,0,0,0,0,3,0,0,0,0,0,2,0,4,2,0,0,0,0,0,0,0,0,2,0,0,0,0,0,0,0,0,0,0,0,0,0,4,4,4,1,0,1,1,2,0,4,0,0,4,0,4,0,1,2,2,0,1,1,0,0,4,4,0,0,1,0,0,0,4,0,0,0,0,0,3,1,1,3,1,3,0,1,0,0,0,0,0,0,0,0,0,0,0,0,0,0,0,1,0,0,0,0,0,0,0,0,0,0,0,0,0,0,0,0,0,0,0,0,0,0,0,0,0,0,0,0,0,0,0,0,0,0,0,0,0,0,0,0,0,0,0,0,0,0,0,0,0,0,0,0,0,0,0,0,0,0,0,0,0,0,0,0,0,0,0,0],"split_type":[0,0,0,0,0,0,0,0,0,0,0,0,0,0,0,0,0,0,0,0,0,0,0,0,0,0,0,0,0,0,0,0,0,0,0,0,0,0,0,0,0,0,0,0,0,0,0,0,0,0,0,0,0,0,0,0,0,0,0,0,0,0,0,0,0,0,0,0,0,0,0,0,0,0,0,0,0,0,0,0,0,0,0,0,0,0,0,0,0,0,0,0,0,0,0,0,0,0,0,0,0,0,0,0,0,0,0,0,0,0,0,0,0,0,0,0,0,0,0,0,0,0,0,0,0,0,0,0,0,0,0,0,0,0,0,0,0,0,0,0,0,0,0,0,0,0,0,0,0,0,0,0,0,0,0,0,0,0,0,0,0,0,0,0,0,0,0,0,0,0,0,0,0,0,0,0,0,0,0,0,0,0,0,0,0,0,0,0,0,0,0,0,0,0,0,0,0,0,0,0,0,0,0,0,0,0,0,0,0,0,0,0,0,0,0,0,0,0,0,0,0,0,0,0,0,0,0,0,0,0,0,0,0,0,0,0,0,0,0,0,0,0,0,0,0,0,0,0,0,0,0,0,0,0,0,0,0,0,0,0,0,0,0,0,0,0,0,0,0,0,0,0,0,0,0,0,0,0,0,0,0,0,0,0,0,0,0,0,0,0,0,0,0,0,0,0,0,0,0,0,0,0,0,0,0,0,0,0,0,0,0,0,0,0,0,0,0,0,0,0,0,0,0,0,0,0,0,0,0,0,0,0,0,0,0,0,0,0,0,0,0,0,0,0,0,0,0,0,0,0,0,0,0,0,0,0,0,0,0,0,0,0,0,0,0,0,0,0,0,0,0,0,0,0,0,0,0,0,0,0,0,0,0,0,0,0,0,0,0,0,0,0,0,0,0,0,0,0,0,0,0,0,0,0,0,0,0,0,0,0,0,0,0,0,0,0,0,0,0,0,0,0,0,0,0,0,0,0,0],"sum_hessian":[8.997E3,5.095E3,3.902E3,2.882E3,2.213E3,1.856E3,2.046E3,1.661E3,1.221E3,9.3E2,1.283E3,9.54E2,9.02E2,1.025E3,1.021E3,1.019E3,6.42E2,7.12E2,5.09E2,5.5E2,3.8E2,7.68E2,5.15E2,5.67E2,3.87E2,5.32E2,3.7E2,7.18E2,3.07E2,7.47E2,2.74E2,4.23E2,5.96E2,4.57E2,1.85E2,4.53E2,2.59E2,3.16E2,1.93E2,4.08E2,1.42E2,2.33E2,1.47E2,4.95E2,2.73E2,2.37E2,2.78E2,3.42E2,2.25E2,1.79E2,2.08E2,3.61E2,1.71E2,1.95E2,1.75E2,3.01E2,4.17E2,2.18E2,8.9E1,3.78E2,3.69E2,1.45E2,1.29E2,2.33E2,2.2E2,1.46E2,1.13E2,2.39E2,7.7E1,1.29E2,6.4E1,8.9E1,3.19E2,5.7E1,8.5E1,1.84E2,4.9E1,5.9E1,8.8E1,1.12E2,3.83E2,8.6E1,1.87E2,9.9E1,1.38E2,1.83E2,9.5E1,7.8E1,2.64E2,1.14E2,1.11E2,9.1E1,8.8E1,1.4E2,6.8E1,2.9E2,7.1E1,8.5E1,8.6E1,1.21E2,7.4E1,1.13E2,6.2E1,9.3E1,2.08E2,1.75E2,2.42E2,1.05E2,1.13E2,4.2E1,4.7E1,2.68E2,1.1E2,2.19E2,1.5E2,5.5E1,9E1,4.6E1,8.3E1,1.32E2,8.8E1,1.29E2,1.1E2,4.2E1,2.2E1,1.57E2,1.62E2,5.8E1,2.7E1,1.14E2,7E1,2.3E1,2.6E1,3.5E1,2.4E1,5.1E1,3.7E1,5E1,6.2E1,2.97E2,8.6E1,5E1,3.6E1,9.8E1,8.9E1,7.3E1,2.6E1,6E1,7.8E1,1.02E2,8.1E1,6.1E1,3.4E1,4.2E1,3.6E1,1.35E2,1.29E2,4.7E1,6.7E1,6E1,5.1E1,4.9E1,4.2E1,4.6E1,4.2E1,4.1E1,9.9E1,3.9E1,2.9E1,1.25E2,1.65E2,1E1,6.1E1,4.4E1,4.1E1,3.1E1,5.5E1,7.3E1,4.8E1,4.9E1,6.4E1,3.6E1,2.6E1,1.3E1,8E1,1.01E2,1.07E2,1.2E1,1.63E2,9E1,1.52E2,2.6E1,7.9E1,2.3E1,9E1,1.08E2,1.6E2,6.5E1,1.54E2,8.4E1,7.3E1,6E1,1.02E2,4.3E1,1.5E1,5.6E1,1.4E1,2.5E1,1E1,1.4E1,1E1,2.2E1,1.5E1,5.2E1,1E1,1.58E2,1.39E2,4.2E1,4.4E1,4E1,1E1,1.7E1,1.9E1,5.2E1,4.6E1,4.2E1,4.7E1,5.8E1,1.5E1,1.2E1,1.4E1,4.3E1,1.7E1,5.3E1,2.5E1,7.7E1,2.5E1,4.5E1,3.6E1,4.4E1,1.7E1,1.9E1,1.5E1,1.4E1,2.8E1,2.6E1,1E1,6E1,7.5E1,8E1,4.9E1,3E1,1.7E1,2.5E1,4.2E1,3.3E1,2.7E1,1.5E1,3.6E1,1.9E1,3E1,1.7E1,2.5E1,3E1,1.6E1,2.2E1,1.9E1,6.2E1,3.7E1,1.6E1,2.3E1,1.2E1,1.7E1,7.1E1,5.4E1,1E2,6.5E1,2.7E1,4.6E1,2.7E1,2.2E1,3.8E1,4.2E1,4.7E1,5.4E1,9.1E1,7.2E1,4.7E1,4.3E1,8.4E1,6.8E1,2.5E1,6.5E1,2.3E1,8.5E1,3.8E1,1.22E2,3E1,2.6E1,1.3E2,2.8E1,1.01E2,3.8E1,1.7E1,2.5E1,2.3E1,2.1E1,3E1,2.2E1,3.5E1,1.1E1,2.6E1,1.6E1,2.9E1,1.8E1,3.7E1,2.1E1,2.9E1,1.4E1,2.9E1,2.4E1,1.1E1,1.4E1,5.3E1,2.4E1,1.1E1,1.4E1,2.8E1,1.7E1,1.7E1,1.9E1,2.5E1,1.9E1,1.5E1,1.3E1,1.4E1,1.2E1,2.2E1,3.8E1,3.3E1,4.2E1,4E1,4E1,1.4E1,3.5E1,1.6E1,1.4E1,1E1,1.5E1,1.3E1,2.9E1,1.9E1,1.4E1,2E1,1E1,1.3E1,1.2E1,4.1E1,2.1E1,2.4E1,4.7E1,2.4E1,3E1,4.1E1,5.9E1,5E1,1.5E1,1.8E1,2E1,4.5E1,4.6E1,6.5E1,6.5E1,1.4E1,1.4E1,2.8E1,7.3E1,2.8E1,1E1,1.2E1,1.3E1,1.2E1,1.1E1,1E1,1.1E1,1E1,1.2E1,1.6E1,1.9E1,1.4E1,1.2E1,1E1,1.9E1,2.1E1,1.6E1,1.1E1,1E1,1.5E1,1.4E1,1.5E1,1.4E1,1.4E1,1E1,3.4E1,1.9E1,1.4E1,1E1,1.5E1,1.3E1,1.2E1,1.3E1,1E1,1.2E1,1.7E1,2.1E1,2.2E1,1.1E1,2.1E1,2.1E1,1.8E1,2.2E1,1.6E1,2.4E1,2.3E1,1.2E1,1.8E1,2.9E1,2.4E1,1.7E1],"tree_param":{"num_deleted":"0","num_feature":"6","num_nodes":"429","size_leaf_vector":"1"}},{"base_weights":[1.3000536E-1,-3.301032E1,4.4189014E1,-4.9649876E1,-1.6639343E1,2.1884735E1,6.4568825E1,-5.632239E1,-4.2303333E1,-2.5869192E1,-7.0203176E0,1.2402034E1,3.2086254E1,5.5185272E1,8.23307E1,-5.954944E0,-5.2720512E1,-4.6633064E1,-3.9167942E1,-3.0574879E1,-2.0126081E1,-1.5122432E1,-8.221271E-1,6.883661E0,2.1266615E1,2.5479753E1,4.1270412E1,4.540278E1,6.419309E1,7.275496E1,9.281766E1,-5.558126E0,-5.0529604E0,-4.8417645E1,-4.1876664E0,-4.337496E1,-3.5840656E1,-3.4363277E1,-2.5691484E1,-2.2019047E1,-1.2354953E1,-1.867485E1,-7.5334888E0,-6.2969007E0,5.8811145E0,1.7654891E0,1.5114378E1,1.348263E1,2.7565426E1,2.1018112E1,3.5533573E1,3.510343E1,5.50947E1,3.547475E1,5.204122E1,5.205686E1,7.154618E1,5.87482E0,7.808311E1,1.0412751E2,7.969197E1,-5.089325E0,-4.5676003E0,-4.5380783E0,-3.9757328E0,-3.9402318E0,-3.3278866E1,-3.7713615E1,-3.0415174E1,-2.8910498E1,-2.0454683E1,-2.6471214E1,-1.8954205E1,-1.6646755E1,-8.941494E0,-2.5763039E1,-1.6579006E1,-1.3650892E1,-4.385777E0,-9.869004E0,-1.7212373E-1,2.5044384E0,1.394498E1,-5.9231157E0,5.509665E0,1.1185025E1,1.9301607E1,5.826584E0,1.6174007E1,2.2452242E1,3.4399586E1,1.7236721E1,2.6120316E1,4.2830097E1,2.9313496E1,2.9745737E1,4.1809944E1,6.3602753E1,4.496616E1,3.0215527E1,4.3454956E1,4.1320686E1,5.7281013E1,4.241558E1,5.8563213E1,6.1156635E1,7.712444E1,7.284323E0,8.513972E0,8.829471E0,1.1148265E1,6.4701433E0,8.692292E0,-3.4399478E0,-2.8033073E0,-4.250602E0,-3.4020466E1,-3.3307557E0,-2.6382322E0,-3.3590488E0,-2.7134079E1,-2.5774171E0,-1.83696E1,-2.9634972E1,-2.3732185E1,-2.1473818E1,-1.4334369E1,-1.9330899E0,-9.9834675E-1,-1.0819332E1,1.9434121E-1,-3.017493E0,-2.039996E1,-1.9040907E1,-1.3021575E1,-1.6278145E0,-9.031759E0,-7.2743034E0,3.563264E-1,-1.22331505E1,-4.337072E0,-6.1758814E0,3.444893E0,8.9298767E-1,9.734706E0,9.770471E0,2.0059483E1,-1.0252642E1,-1.3505535E0,1.8256226E0,8.530159E0,8.957306E0,1.6556395E0,1.5736311E1,2.3346128E1,1.9350721E0,1.059422E0,2.1114649E1,1.1729372E1,1.6721914E1,2.6504078E1,2.7891365E1,3.883527E0,1.3554008E1,2.217402E1,1.5929322E1,2.8081232E1,3.7381237E0,4.943254E0,2.2554226E0,3.4134644E1,2.5324848E1,3.5152454E0,3.4831498E0,4.501708E0,4.3653765E0,6.726495E0,3.6983583E0,4.916717E0,2.3100292E1,3.4143234E1,2.593329E0,4.597645E0,3.6263282E0,4.4370418E0,5.3865833E0,6.6008973E0,3.8313553E1,5.2551815E1,6.624662E1,5.0531936E0,5.650609E1,7.25958E1,8.469651E1,6.782587E1,-3.670365E0,-3.0515647E0,-2.8564632E0,-2.2070405E0,-2.0675781E1,-1.4587146E1,-3.2430859E0,-2.5608928E0,-2.460529E0,-1.830141E0,-2.3295263E1,-1.7836739E0,-1.8566923E1,-1.10994215E1,-1.2489535E1,-6.9379604E-1,-2.212504E0,-1.498248E0,-2.1586714E1,-1.6147192E1,-1.6358856E1,-9.792019E0,-6.170756E-1,-1.0977935E0,-9.235275E0,-3.061388E0,3.6259649E0,-3.3753686E0,-1.5130488E1,-9.484661E0,-7.687653E0,-3.0758604E-1,-1.0505557E0,-3.4786847E0,1.1792953E0,7.341686E0,-4.3613153E0,3.0659356E0,6.3176417E0,1.4892582E0,6.748899E0,1.5776469E0,1.3527405E0,2.4703193E0,-1.4230192E1,-4.1979485E0,-3.9102867E0,4.8393956E-1,2.3466001E-1,6.219464E0,6.4455805E0,1.5103616E1,4.7301655E0,1.1711532E1,1.2212479E1,1.945324E0,1.9954127E0,2.6918602E0,3.0704206E-2,3.308595E-1,1.6747862E1,2.7300541E0,9.976272E0,1.4110173E0,1.2943986E1,2.3138893E0,3.1856892E0,2.115829E1,2.2406304E0,3.2197149E0,1.0032564E1,1.6215555E1,1.7172623E1,2.5906334E1,1.2548339E0,1.9706358E0,2.4167715E1,3.292418E0,2.3971903E0,3.6386392E0,2.2271805E1,2.805807E0,1.8002806E1,2.7928543E0,3.1450915E0,3.873799E0,3.161366E0,4.120214E0,5.941538E0,3.9533937E0,5.921327E0,7.454622E0,4.1237645E0,5.823129E0,8.26687E0,5.906596E0,7.502874E0,9.542471E0,6.0610194E0,7.388706E0,-2.2949786E0,-1.6938027E0,-1.1568893E0,-1.7465725E0,-2.630964E0,-2.0518074E0,-2.1008375E0,-1.4248786E0,-1.2563474E1,-5.182422E-1,-8.607325E-1,-1.3845936E0,-2.5144088E0,-1.7457885E0,-1.7469867E0,-1.3451911E0,-1.9250891E0,-6.5921605E-1,-1.09724655E1,-7.4644065E-1,-1.0963612E0,-6.5372276E-1,1.18615024E-1,-7.7617335E-1,-8.985694E-3,6.1091703E-1,-5.175801E-1,-1.104409E-1,-1.8296378E0,-1.1190601E1,-1.29098425E1,-7.8105855E0,-1.1421881E1,-3.4095266E0,-2.525481E-1,7.6930696E-1,-6.0074127E-1,-1.788212E0,-2.0737891E0,5.2320945E-1,4.001909E-1,1.0088048E0,-6.2586336E0,1.777684E-1,5.7400255E0,-1.7517029E-1,2.8439844E-1,9.839735E-1,9.326949E0,3.8494728E0,-1.708806E0,-8.3145493E-1,-9.03855E-1,2.2026329E-1,-7.005447E-2,-6.422143E0,-3.0002134E0,2.9721687E0,2.864215E-1,7.753877E-1,3.4115431E0,9.358003E0,1.2282871E0,1.8781284E0,-1.2767164E-1,7.7868032E0,5.855115E-1,1.3715077E1,9.5679655E0,1.5748389E0,1.2408046E0,1.8661324E0,1.1828954E0,7.560307E-1,7.0794797E-1,1.500661E0,1.5292822E0,2.369822E0,7.38439E0,1.1787933E0,1.2366003E0,1.7236256E1,1.941185E0,1.4115652E0,3.0394733E0,2.2050524E0,2.0355031E0,2.8054547E0,1.9267033E0,2.6087487E0,9.706486E-1,2.1886282E0,-1.3583378E0,-9.610962E-1,-1.1959441E0,-7.9267174E-1,-1.2553636E0,-6.964051E-1,-9.249134E-1,-1.4349735E0,-9.3494093E-1,-5.7036453E-1,-1.319988E0,-8.4438926E-1,-1.8482944E-1,-4.660802E-1,1.7921406E-1,-3.2058207E-3,-3.3095664E-1,1.723168E-2,-5.418024E-1,1.5891531E-1,-8.9931935E-1,-4.628391E-1,3.3892104E-1,1.3422804E0,-2.3517826E-1,3.140287E-1,6.2894195E-1,1.1516575E0,5.409122E-1,1.9398713E-1,-8.3736E-1,-3.3546394E-1,-6.552181E-1,-5.07226E-2,1.2528859E-1,7.7390635E-1,-6.0000546E-2,6.507064E-1,7.431738E-1,1.2164754E0,3.718159E-1,1.094349E0,9.6322745E-1,1.5228976E0,6.998741E-1,1.1125758E0,1.0215181E0,4.8161837E-1,1.3518641E0,2.01778E0],"categories":[],"categories_nodes":[],"categories_segments":[],"categories_sizes":[],"default_left":[0,0,0,0,0,0,0,0,0,0,0,0,0,0,0,0,0,0,0,0,0,0,0,0,0,0,0,0,0,0,0,0,0,0,0,0,0,0,0,0,0,0,0,0,0,0,0,0,0,0,0,0,0,0,0,0,0,0,0,0,0,0,0,0,0,0,0,0,0,0,0,0,0,0,0,0,0,0,0,0,0,0,0,0,0,0,0,0,0,0,0,0,0,0,0,0,0,0,0,0,0,0,0,0,0,0,0,0,0,0,0,0,0,0,0,0,0,0,0,0,0,0,0,0,0,0,0,0,0,0,0,0,0,0,0,0,0,0,0,0,0,0,0,0,0,0,0,0,0,0,0,0,0,0,0,0,0,0,0,0,0,0,0,0,0,0,0,0,0,0,0,0,0,0,0,0,0,0,0,0,0,0,0,0,0,0,0,0,0,0,0,0,0,0,0,0,0,0,0,0,0,0,0,0,0,0,0,0,0,0,0,0,0,0,0,0,0,0,0,0,0,0,0,0,0,0,0,0,0,0,0,0,0,0,0,0,0,0,0,0,0,0,0,0,0,0,0,0,0,0,0,0,0,0,0,0,0,0,0,0,0,0,0,0,0,0,0,0,0,0,0,0,0,0,0,0,0,0,0,0,0,0,0,0,0,0,0,0,0,0,0,0,0,0,0,0,0,0,0,0,0,0,0,0,0,0,0,0,0,0,0,0,0,0,0,0,0,0,0,0,0,0,0,0,0,0,0,0,0,0,0,0,0,0,0,0,0,0,0,0,0,0,0,0,0,0,0,0,0,0,0,0,0,0,0,0,0,0,0,0,0,0,0,0,0,0,0,0,0,0,0,0,0,0,0,0,0,0,0,0,0,0,0,0,0,0,0,0,0,0,0,0,0,0,0,0,0,0,0,0,0,0,0,0,0,0,0,0,0,0,0,0,0,0,0,0,0,0,0,0,0,0,0,0,0,0,0,0,0,0,0,0,0,0,0,0,0],"id":3,"left_children":[1,3,5,7,9,11,13,15,17,19,21,23,25,27,29,-1,31,33,35,37,39,41,43,45,47,49,51,53,55,57,59,-1,-1,61,-1,63,65,67,69,71,73,75,77,79,81,83,85,87,89,91,93,95,97,99,101,103,105,-1,107,109,111,-1,-1,-1,-1,-1,113,115,117,119,121,123,125,127,129,131,133,135,137,139,141,143,145,147,149,151,153,155,157,159,161,163,165,167,169,171,173,175,177,179,181,183,185,187,189,191,193,-1,-1,-1,-1,-1,-1,-1,-1,-1,195,-1,-1,-1,197,-1,199,201,203,205,207,-1,-1,209,-1,-1,211,213,215,-1,217,219,221,223,225,227,229,231,233,235,237,239,241,243,245,247,-1,249,251,253,-1,255,257,259,261,263,-1,265,267,269,271,-1,-1,-1,273,275,-1,-1,-1,-1,-1,-1,-1,277,279,-1,-1,-1,-1,-1,-1,281,283,285,-1,287,289,291,293,-1,-1,-1,-1,295,297,-1,-1,-1,-1,299,-1,301,303,305,-1,-1,-1,307,309,311,313,-1,-1,315,317,319,321,323,325,327,329,-1,331,333,335,337,339,341,-1,343,-1,-1,-1,345,347,349,-1,351,353,355,357,359,361,363,-1,-1,-1,-1,-1,365,-1,367,-1,369,-1,-1,371,-1,-1,373,375,377,379,-1,-1,381,-1,-1,-1,383,-1,385,-1,-1,-1,-1,-1,-1,-1,-1,-1,-1,-1,-1,-1,-1,-1,-1,-1,-1,-1,-1,-1,-1,-1,-1,-1,387,-1,-1,-1,-1,-1,-1,-1,-1,-1,389,-1,-1,-1,-1,-1,-1,-1,-1,-1,-1,391,393,395,397,399,-1,401,-1,403,405,-1,-1,-1,407,-1,409,411,-1,-1,413,415,-1,-1,-1,-1,-1,417,419,421,-1,-1,423,425,-1,-1,-1,427,-1,429,431,-1,-1,-1,-1,-1,-1,-1,-1,-1,433,-1,-1,435,-1,-1,-1,-1,-1,-1,-1,-1,-1,-1,-1,-1,-1,-1,-1,-1,-1,-1,-1,-1,-1,-1,-1,-1,-1,-1,-1,-1,-1,-1,-1,-1,-1,-1,-1,-1,-1,-1,-1,-1,-1,-1,-1,-1,-1,-1,-1,-1,-1,-1,-1,-1,-1,-1,-1,-1,-1,-1,-1,-1],"loss_changes":[1.3203952E7,1.4050605E6,1.763177E6,1.230595E5,2.3091838E5,1.79051E5,3.33463E5,1.24125E4,1.47625E4,3.5274188E4,6.406631E4,4.696172E4,5.3131375E4,1.142835E5,6.3441E4,0E0,1.209125E3,2.284375E3,8.454E3,1.25853125E4,8.5689375E3,1.47676875E4,2.6606912E4,2.503842E4,1.7720375E4,2.2668219E4,2.9780438E4,4.04E4,5.78505E4,2.3025875E4,4.06905E4,0E0,0E0,1.391875E2,0E0,4.524375E2,2.3840625E3,4.2365312E3,4.836703E3,6.07525E3,1.6091406E3,5.1586406E3,3.367668E3,8.727759E3,8.84175E3,1.0626431E4,3.5354219E3,3.3468477E3,6.3213594E3,6.5725938E3,5.9606875E3,8.0985E3,6.8777188E3,9.599125E3,1.9091312E4,1.40765625E4,2.003025E4,0E0,3.59675E3,1.0419375E4,1.13940625E4,0E0,0E0,0E0,0E0,0E0,4.5825E2,2.3769062E3,1.3608594E3,7.2634375E2,9.240742E2,9.7784375E2,3.0562031E3,7.37042E2,1.4313931E3,1.3719805E3,2.318164E3,5.811162E2,1.6326172E3,3.2426738E3,3.2351975E3,2.6827388E3,2.254414E3,2.3815933E3,2.7440786E3,1.2876084E3,1.2043867E3,8.1439844E2,2.453338E3,2.3197812E3,1.3706406E3,3.5541836E3,2.6101953E3,7.064297E2,2.1303984E3,2.6473438E3,9.6103125E2,1.3739844E3,2.6039062E1,3.6827344E3,3.2699375E3,3.8064062E2,4.0155625E3,2.56025E3,6.2171875E3,4.0904375E3,1.3547625E4,0E0,0E0,0E0,0E0,0E0,0E0,0E0,0E0,0E0,7.428125E1,0E0,0E0,0E0,4.4164844E2,0E0,5.1836523E2,1.3752344E2,6.652734E1,8.100625E2,1.2315879E3,0E0,0E0,2.9582617E2,0E0,0E0,5.168164E1,9.1116406E2,1.1655E3,0E0,6.589014E1,5.830713E2,5.734985E2,1.2580352E3,1.0372217E3,6.1742163E2,8.1239844E2,2.1826636E3,6.461555E2,9.6423193E2,8.184863E2,1.4333989E3,9.6960046E2,7.8845984E2,1.7662402E3,9.574995E2,0E0,5.613955E2,5.663672E1,5.7123672E1,0E0,1.0824863E3,1.3887598E2,9.611201E2,1.2717812E3,1.7604492E2,0E0,9.9950586E2,1.2164648E3,9.7510254E1,1.6113203E3,0E0,0E0,0E0,2.719453E2,8.4390625E1,0E0,0E0,0E0,0E0,0E0,0E0,0E0,9.739258E2,3.1078125E1,0E0,0E0,0E0,0E0,0E0,0E0,2.8439844E2,2.4219531E2,2.23125E1,0E0,6.01625E2,7.047344E2,8.086875E3,1.119875E3,0E0,0E0,0E0,0E0,8.725586E1,1.3678418E2,0E0,0E0,0E0,0E0,4.647578E2,0E0,1.6452832E2,4.719839E2,9.145703E1,0E0,0E0,0E0,8.535664E2,6.445508E1,1.5395859E3,9.669287E1,0E0,0E0,1.6148535E2,5.08329E2,2.312276E2,8.423538E1,8.4300586E2,4.324287E2,6.320276E2,8.7926544E1,0E0,1.4314832E2,8.0189606E2,2.7148474E2,6.633933E2,1.1710516E3,3.0234863E2,0E0,2.7056543E2,0E0,0E0,0E0,4.8344727E2,8.25458E2,3.4218463E2,0E0,7.527787E2,1.3224146E2,8.958965E2,1.0127246E2,6.709325E2,5.2984375E2,1.6724512E2,0E0,0E0,0E0,0E0,0E0,6.739551E1,0E0,9.856201E1,0E0,3.1713086E2,0E0,0E0,1.8881055E2,0E0,0E0,1.7327051E2,5.7972656E1,6.6445312E0,1.7779297E2,0E0,0E0,5.255703E2,0E0,0E0,0E0,1.3306641E1,0E0,8.1855664E2,0E0,0E0,0E0,0E0,0E0,0E0,0E0,0E0,0E0,0E0,0E0,0E0,0E0,0E0,0E0,0E0,0E0,0E0,0E0,0E0,0E0,0E0,0E0,0E0,0E0,1.7003906E1,0E0,0E0,0E0,0E0,0E0,0E0,0E0,0E0,0E0,2.8449707E1,0E0,0E0,0E0,0E0,0E0,0E0,0E0,0E0,0E0,0E0,1.4301318E2,2.0137207E1,1.5741772E2,5.0285645E0,3.2409653E1,0E0,2.0549034E1,0E0,6.917145E1,4.2510123E2,0E0,0E0,0E0,1.5007007E2,0E0,1.2910059E3,4.5480612E2,0E0,0E0,6.7239624E1,5.2051453E1,0E0,0E0,0E0,0E0,0E0,1.1557611E2,3.42022E2,3.6730328E2,0E0,0E0,6.620493E2,1.961416E2,0E0,0E0,0E0,2.6755286E2,0E0,8.818652E1,1.0184814E1,0E0,0E0,0E0,0E0,0E0,0E0,0E0,0E0,0E0,1.3255322E2,0E0,0E0,2.958711E2,0E0,0E0,0E0,0E0,0E0,0E0,0E0,0E0,0E0,0E0,0E0,0E0,0E0,0E0,0E0,0E0,0E0,0E0,0E0,0E0,0E0,0E0,0E0,0E0,0E0,0E0,0E0,0E0,0E0,0E0,0E0,0E0,0E0,0E0,0E0,0E0,0E0,0E0,0E0,0E0,0E0,0E0,0E0,0E0,0E0,0E0,0E0,0E0,0E0,0E0,0E0,0E0,0E0,0E0,0E0,0E0,0E0,0E0,0E0,0E0],"parents":[2147483647,0,0,1,1,2,2,3,3,4,4,5,5,6,6,7,7,8,8,9,9,10,10,11,11,12,12,13,13,14,14,16,16,17,17,18,18,19,19,20,20,21,21,22,22,23,23,24,24,25,25,26,26,27,27,28,28,29,29,30,30,33,33,35,35,36,36,37,37,38,38,39,39,40,40,41,41,42,42,43,43,44,44,45,45,46,46,47,47,48,48,49,49,50,50,51,51,52,52,53,53,54,54,55,55,56,56,58,58,59,59,60,60,66,66,67,67,68,68,69,69,70,70,71,71,72,72,73,73,74,74,75,75,76,76,77,77,78,78,79,79,80,80,81,81,82,82,83,83,84,84,85,85,86,86,87,87,88,88,89,89,90,90,91,91,92,92,93,93,94,94,95,95,96,96,97,97,98,98,99,99,100,100,101,101,102,102,103,103,104,104,105,105,106,106,116,116,120,120,122,122,123,123,124,124,125,125,126,126,129,129,132,132,133,133,134,134,136,136,137,137,138,138,139,139,140,140,141,141,142,142,143,143,144,144,145,145,146,146,147,147,148,148,149,149,150,150,151,151,153,153,154,154,155,155,157,157,158,158,159,159,160,160,161,161,163,163,164,164,165,165,166,166,170,170,171,171,179,179,180,180,187,187,188,188,189,189,191,191,192,192,193,193,194,194,199,199,200,200,205,205,207,207,208,208,209,209,213,213,214,214,215,215,216,216,219,219,220,220,221,221,222,222,223,223,224,224,225,225,226,226,228,228,229,229,230,230,231,231,232,232,233,233,235,235,239,239,240,240,241,241,243,243,244,244,245,245,246,246,247,247,248,248,249,249,255,255,257,257,259,259,262,262,265,265,266,266,267,267,268,268,271,271,275,275,277,277,303,303,313,313,324,324,325,325,326,326,327,327,328,328,330,330,332,332,333,333,337,337,339,339,340,340,343,343,344,344,350,350,351,351,352,352,355,355,356,356,360,360,362,362,363,363,373,373,376,376],"right_children":[2,4,6,8,10,12,14,16,18,20,22,24,26,28,30,-1,32,34,36,38,40,42,44,46,48,50,52,54,56,58,60,-1,-1,62,-1,64,66,68,70,72,74,76,78,80,82,84,86,88,90,92,94,96,98,100,102,104,106,-1,108,110,112,-1,-1,-1,-1,-1,114,116,118,120,122,124,126,128,130,132,134,136,138,140,142,144,146,148,150,152,154,156,158,160,162,164,166,168,170,172,174,176,178,180,182,184,186,188,190,192,194,-1,-1,-1,-1,-1,-1,-1,-1,-1,196,-1,-1,-1,198,-1,200,202,204,206,208,-1,-1,210,-1,-1,212,214,216,-1,218,220,222,224,226,228,230,232,234,236,238,240,242,244,246,248,-1,250,252,254,-1,256,258,260,262,264,-1,266,268,270,272,-1,-1,-1,274,276,-1,-1,-1,-1,-1,-1,-1,278,280,-1,-1,-1,-1,-1,-1,282,284,286,-1,288,290,292,294,-1,-1,-1,-1,296,298,-1,-1,-1,-1,300,-1,302,304,306,-1,-1,-1,308,310,312,314,-1,-1,316,318,320,322,324,326,328,330,-1,332,334,336,338,340,342,-1,344,-1,-1,-1,346,348,350,-1,352,354,356,358,360,362,364,-1,-1,-1,-1,-1,366,-1,368,-1,370,-1,-1,372,-1,-1,374,376,378,380,-1,-1,382,-1,-1,-1,384,-1,386,-1,-1,-1,-1,-1,-1,-1,-1,-1,-1,-1,-1,-1,-1,-1,-1,-1,-1,-1,-1,-1,-1,-1,-1,-1,388,-1,-1,-1,-1,-1,-1,-1,-1,-1,390,-1,-1,-1,-1,-1,-1,-1,-1,-1,-1,392,394,396,398,400,-1,402,-1,404,406,-1,-1,-1,408,-1,410,412,-1,-1,414,416,-1,-1,-1,-1,-1,418,420,422,-1,-1,424,426,-1,-1,-1,428,-1,430,432,-1,-1,-1,-1,-1,-1,-1,-1,-1,434,-1,-1,436,-1,-1,-1,-1,-1,-1,-1,-1,-1,-1,-1,-1,-1,-1,-1,-1,-1,-1,-1,-1,-1,-1,-1,-1,-1,-1,-1,-1,-1,-1,-1,-1,-1,-1,-1,-1,-1,-1,-1,-1,-1,-1,-1,-1,-1,-1,-1,-1,-1,-1,-1,-1,-1,-1,-1,-1,-1,-1,-1,-1],"split_conditions":[1.8E1,1E1,2.4E1,6E0,1.4E1,1.01E2,1.09E2,4E0,8.7E1,9.3E1,9.5E1,4.7E1,2.2E1,4E1,4.2E1,-5.954944E0,8.4E1,5.3E1,8E0,4.3E1,6.1E1,4.9E1,4.3E1,2.1E1,2E1,5.4E1,5.4E1,1.04E2,2.6E1,2.7E1,1E0,-5.558126E0,-5.0529604E0,1E0,-4.1876664E0,4.8E1,3.5E1,1E0,1.2E1,1.2E1,1.2E1,8.9E1,9E1,1E2,1.7E1,9.5E1,9.8E1,9.5E1,9.8E1,1.05E2,1E0,1.06E2,1E0,2.7E1,2.6E1,1.03E2,1.04E2,5.87482E0,1.13E2,2.7E1,2.7E1,-5.089325E0,-4.5676003E0,-4.5380783E0,-3.9757328E0,-3.9402318E0,9.5E1,8.9E1,1.2E1,8.7E1,8.7E1,3.5E1,9.8E1,1.86E2,1.87E2,1E0,1.6E1,6.6E1,1.6E1,1.7E1,1.6E1,1.02E2,1.01E2,1E0,9.8E1,3.6E1,3.3E1,6.2E1,1E0,5.7E1,1.74E2,3.8E1,1.9E1,6.8E1,1.04E2,3.5E1,2.7E1,1.03E2,1.04E2,1E2,9.8E1,2.7E1,2.9E1,6.7E1,1E0,6.8E1,1E0,7.284323E0,8.513972E0,8.829471E0,1.1148265E1,6.4701433E0,8.692292E0,-3.4399478E0,-2.8033073E0,-4.250602E0,1.2E1,-3.3307557E0,-2.6382322E0,-3.3590488E0,6.8E1,-2.5774171E0,6.4E1,1E0,9.9E1,3.8E1,3.2E1,-1.9330899E0,-9.9834675E-1,9.7E1,1.9434121E-1,-3.017493E0,1.6E1,3.2E1,1E0,-1.6278145E0,1E0,6.9E1,1E0,2.8E1,2.9E1,2.6E1,1.03E2,1.5E1,6.2E1,6.6E1,1.8E2,3.4E1,2E1,3.8E1,3.8E1,1E0,1.6556395E0,1E0,2.3E1,9.2E1,1.059422E0,6.7E1,1.9E1,2.2E1,1E0,2.2E1,3.883527E0,2E1,2E1,3.2E1,3.4E1,3.7381237E0,4.943254E0,2.2554226E0,2E1,1E0,3.5152454E0,3.4831498E0,4.501708E0,4.3653765E0,6.726495E0,3.6983583E0,4.916717E0,1E0,2.6E1,2.593329E0,4.597645E0,3.6263282E0,4.4370418E0,5.3865833E0,6.6008973E0,9.9E1,1E0,6.2E1,5.0531936E0,9.8E1,1E0,5.7E1,2.8E1,-3.670365E0,-3.0515647E0,-2.8564632E0,-2.2070405E0,9.1E1,1E0,-3.2430859E0,-2.5608928E0,-2.460529E0,-1.830141E0,1E0,-1.7836739E0,1E0,1.02E2,1E0,-6.9379604E-1,-2.212504E0,-1.498248E0,1E0,9.3E1,3.7E1,9.3E1,-6.170756E-1,-1.0977935E0,1.8E2,1E0,5.7E1,1.7E1,1E0,1.5E1,1E0,9.7E1,-1.0505557E0,1.5E1,3.3E1,1.7E1,6.8E1,1E0,1.79E2,1.4892582E0,1E0,1.5776469E0,1.3527405E0,2.4703193E0,1.87E2,9.3E1,1.64E2,4.8393956E-1,1E0,1.9E1,1E0,1.88E2,2.5E1,9.4E1,2.3E1,1.945324E0,1.9954127E0,2.6918602E0,3.0704206E-2,3.308595E-1,5.2E1,2.7300541E0,1.65E2,1.4110173E0,9.4E1,2.3138893E0,3.1856892E0,2.1E1,2.2406304E0,3.2197149E0,1.9E1,2.3E1,1E0,1E0,1.2548339E0,1.9706358E0,2.1E1,3.292418E0,2.3971903E0,3.6386392E0,1.04E2,2.805807E0,2.4E1,2.7928543E0,3.1450915E0,3.873799E0,3.161366E0,4.120214E0,5.941538E0,3.9533937E0,5.921327E0,7.454622E0,4.1237645E0,5.823129E0,8.26687E0,5.906596E0,7.502874E0,9.542471E0,6.0610194E0,7.388706E0,-2.2949786E0,-1.6938027E0,-1.1568893E0,-1.7465725E0,-2.630964E0,-2.0518074E0,-2.1008375E0,-1.4248786E0,1.01E2,-5.182422E-1,-8.607325E-1,-1.3845936E0,-2.5144088E0,-1.7457885E0,-1.7469867E0,-1.3451911E0,-1.9250891E0,-6.5921605E-1,3.5E1,-7.4644065E-1,-1.0963612E0,-6.5372276E-1,1.18615024E-1,-7.7617335E-1,-8.985694E-3,6.1091703E-1,-5.175801E-1,-1.104409E-1,-1.8296378E0,1.6E1,1.65E2,3.5E1,1.84E2,1.65E2,-2.525481E-1,1.68E2,-6.0074127E-1,1.03E2,1E0,5.2320945E-1,4.001909E-1,1.0088048E0,9.7E1,1.777684E-1,6.7E1,9.9E1,2.8439844E-1,9.839735E-1,9.8E1,1.64E2,-1.708806E0,-8.3145493E-1,-9.03855E-1,2.2026329E-1,-7.005447E-2,9.2E1,1.81E2,2E1,2.864215E-1,7.753877E-1,1.83E2,2E1,1.2282871E0,1.8781284E0,-1.2767164E-1,1.89E2,5.855115E-1,2.2E1,2.5E1,1.5748389E0,1.2408046E0,1.8661324E0,1.1828954E0,7.560307E-1,7.0794797E-1,1.500661E0,1.5292822E0,2.369822E0,1.7E2,1.1787933E0,1.2366003E0,2.1E1,1.941185E0,1.4115652E0,3.0394733E0,2.2050524E0,2.0355031E0,2.8054547E0,1.9267033E0,2.6087487E0,9.706486E-1,2.1886282E0,-1.3583378E0,-9.610962E-1,-1.1959441E0,-7.9267174E-1,-1.2553636E0,-6.964051E-1,-9.249134E-1,-1.4349735E0,-9.3494093E-1,-5.7036453E-1,-1.319988E0,-8.4438926E-1,-1.8482944E-1,-4.660802E-1,1.7921406E-1,-3.2058207E-3,-3.3095664E-1,1.723168E-2,-5.418024E-1,1.5891531E-1,-8.9931935E-1,-4.628391E-1,3.3892104E-1,1.3422804E0,-2.3517826E-1,3.140287E-1,6.2894195E-1,1.1516575E0,5.409122E-1,1.9398713E-1,-8.3736E-1,-3.3546394E-1,-6.552181E-1,-5.07226E-2,1.2528859E-1,7.7390635E-1,-6.0000546E-2,6.507064E-1,7.431738E-1,1.2164754E0,3.718159E-1,1.094349E0,9.6322745E-1,1.5228976E0,6.998741E-1,1.1125758E0,1.0215181E0,4.8161837E-1,1.3518641E0,2.01778E0],"split_indices":[3,3,3,3,3,4,4,3,4,4,4,1,3,1,1,0,4,1,3,1,1,1,1,3,3,1,1,4,3,3,0,0,0,0,0,1,1,0,3,3,3,4,4,4,3,4,4,4,4,4,0,4,0,3,3,4,4,0,4,3,3,0,0,0,0,0,4,4,3,4,4,1,4,2,2,0,3,1,3,3,3,4,4,0,4,1,1,1,0,1,2,1,3,1,4,1,1,4,4,4,4,1,3,1,0,1,0,0,0,0,0,0,0,0,0,0,3,0,0,0,1,0,1,0,4,1,1,0,0,4,0,0,3,1,0,0,0,1,0,1,1,1,4,3,1,1,2,1,3,1,1,0,0,0,3,4,0,1,3,3,0,3,0,3,3,1,1,0,0,0,3,0,0,0,0,0,0,0,0,0,3,0,0,0,0,0,0,4,0,1,0,4,0,1,3,0,0,0,0,4,0,0,0,0,0,0,0,0,4,0,0,0,0,0,4,1,4,0,0,2,0,1,3,0,3,0,4,0,3,1,3,1,0,2,0,0,0,0,0,2,4,2,0,0,3,0,2,1,4,3,0,0,0,0,0,1,0,2,0,4,0,0,3,0,0,3,1,0,0,0,0,3,0,0,0,4,0,1,0,0,0,0,0,0,0,0,0,0,0,0,0,0,0,0,0,0,0,0,0,0,0,0,0,4,0,0,0,0,0,0,0,0,0,1,0,0,0,0,0,0,0,0,0,0,3,2,1,2,2,0,2,0,4,0,0,0,0,4,0,1,4,0,0,4,2,0,0,0,0,0,4,2,3,0,0,2,3,0,0,0,2,0,3,1,0,0,0,0,0,0,0,0,0,2,0,0,3,0,0,0,0,0,0,0,0,0,0,0,0,0,0,0,0,0,0,0,0,0,0,0,0,0,0,0,0,0,0,0,0,0,0,0,0,0,0,0,0,0,0,0,0,0,0,0,0,0,0,0,0,0,0,0,0,0,0,0,0],"split_type":[0,0,0,0,0,0,0,0,0,0,0,0,0,0,0,0,0,0,0,0,0,0,0,0,0,0,0,0,0,0,0,0,0,0,0,0,0,0,0,0,0,0,0,0,0,0,0,0,0,0,0,0,0,0,0,0,0,0,0,0,0,0,0,0,0,0,0,0,0,0,0,0,0,0,0,0,0,0,0,0,0,0,0,0,0,0,0,0,0,0,0,0,0,0,0,0,0,0,0,0,0,0,0,0,0,0,0,0,0,0,0,0,0,0,0,0,0,0,0,0,0,0,0,0,0,0,0,0,0,0,0,0,0,0,0,0,0,0,0,0,0,0,0,0,0,0,0,0,0,0,0,0,0,0,0,0,0,0,0,0,0,0,0,0,0,0,0,0,0,0,0,0,0,0,0,0,0,0,0,0,0,0,0,0,0,0,0,0,0,0,0,0,0,0,0,0,0,0,0,0,0,0,0,0,0,0,0,0,0,0,0,0,0,0,0,0,0,0,0,0,0,0,0,0,0,0,0,0,0,0,0,0,0,0,0,0,0,0,0,0,0,0,0,0,0,0,0,0,0,0,0,0,0,0,0,0,0,0,0,0,0,0,0,0,0,0,0,0,0,0,0,0,0,0,0,0,0,0,0,0,0,0,0,0,0,0,0,0,0,0,0,0,0,0,0,0,0,0,0,0,0,0,0,0,0,0,0,0,0,0,0,0,0,0,0,0,0,0,0,0,0,0,0,0,0,0,0,0,0,0,0,0,0,0,0,0,0,0,0,0,0,0,0,0,0,0,0,0,0,0,0,0,0,0,0,0,0,0,0,0,0,0,0,0,0,0,0,0,0,0,0,0,0,0,0,0,0,0,0,0,0,0,0,0,0,0,0,0,0,0,0,0,0,0,0,0,0,0,0,0,0,0,0,0,0,0,0,0,0,0,0,0,0,0,0,0,0,0,0,0,0,0,0,0,0,0,0,0,0,0,0,0,0,0,0,0,0],"sum_hessian":[9.041E3,5.16E3,3.881E3,2.558E3,2.602E3,1.854E3,2.027E3,1.337E3,1.221E3,1.327E3,1.275E3,9.62E2,8.92E2,1.329E3,6.98E2,6.97E2,6.4E2,5.07E2,7.14E2,7.27E2,6E2,5.52E2,7.23E2,5.94E2,3.68E2,5.21E2,3.71E2,6.4E2,6.89E2,3.69E2,3.29E2,2.67E2,3.73E2,3.62E2,1.45E2,3.1E2,4.04E2,4.06E2,3.21E2,4.81E2,1.19E2,3.75E2,1.77E2,3.98E2,3.25E2,3.67E2,2.27E2,1.66E2,2.02E2,3.63E2,1.58E2,2.59E2,1.12E2,2.59E2,3.81E2,2.63E2,4.26E2,1.05E2,2.64E2,1.73E2,1.56E2,1.81E2,1.81E2,1.92E2,1.18E2,1.63E2,2.41E2,2.15E2,1.91E2,1.96E2,1.25E2,1.93E2,2.88E2,5.1E1,6.8E1,8.3E1,2.92E2,5.9E1,1.18E2,2.51E2,1.47E2,2.3E2,9.5E1,1.2E2,2.47E2,1.19E2,1.08E2,4.4E1,1.22E2,1.18E2,8.4E1,2.11E2,1.52E2,7E1,8.8E1,1.47E2,1.12E2,5.8E1,5.4E1,1.59E2,1E2,1.28E2,2.53E2,1.09E2,1.54E2,1.53E2,2.73E2,1.58E2,1.06E2,5.9E1,1.14E2,5.4E1,1.02E2,1.94E2,4.7E1,8.9E1,1.26E2,1.07E2,8.4E1,4.9E1,1.47E2,3.2E1,9.3E1,8.5E1,1.08E2,1.84E2,1.04E2,3.5E1,1.6E1,5.8E1,1E1,4.3E1,4E1,1.7E2,1.22E2,3.6E1,2.3E1,7.3E1,4.5E1,1.75E2,7.6E1,5.5E1,9.2E1,1.89E2,4.1E1,5.8E1,3.7E1,6.1E1,5.9E1,1.12E2,1.35E2,8.6E1,3.3E1,6E1,4.8E1,2.5E1,1.9E1,5.6E1,6.6E1,5.1E1,6.7E1,3.7E1,4.7E1,1.23E2,8.8E1,2.6E1,1.26E2,4.2E1,2.8E1,3.9E1,4.9E1,8.4E1,6.3E1,3.9E1,7.3E1,1.1E1,4.7E1,2.2E1,3.2E1,5.9E1,1E2,1.4E1,8.6E1,5.3E1,7.5E1,1.87E2,6.6E1,8.1E1,2.8E1,7.5E1,7.9E1,1.13E2,4E1,1.46E2,1.27E2,6.6E1,6E1,1.11E2,3.6E1,5.5E1,3.8E1,4.6E1,3.9E1,9E1,1.8E1,1.19E2,6.5E1,4.3E1,6.1E1,3.9E1,1.9E1,2.8E1,1.2E1,8.7E1,8.3E1,5.8E1,6.4E1,1.1E1,1.2E1,4.9E1,2.4E1,2.4E1,2.1E1,8.3E1,9.2E1,4.1E1,3.5E1,2E1,3.5E1,5.9E1,3.3E1,5.5E1,1.34E2,2.6E1,1.5E1,4E1,1.8E1,1.7E1,2E1,3.6E1,2.5E1,4.2E1,1.7E1,8.3E1,2.9E1,1.04E2,3.1E1,3.5E1,5.1E1,3.3E1,2.7E1,2.8E1,2E1,1.2E1,1.3E1,3.5E1,2.1E1,4.1E1,2.5E1,3.4E1,1.7E1,3.1E1,3.6E1,1.9E1,1.8E1,5.5E1,6.8E1,4E1,4.8E1,1.6E1,1E1,7.3E1,5.3E1,1.1E1,3.8E1,4.4E1,4E1,3.1E1,2.8E1,6.8E1,3.2E1,2.8E1,5.3E1,1.6E1,1.2E1,4.5E1,3E1,1.4E1,9.9E1,2E1,2E1,8.1E1,6.5E1,6.3E1,6.4E1,3.1E1,2.4E1,2.1E1,1.7E1,5.3E1,6.6E1,2.5E1,1.8E1,4.8E1,1.3E1,1.2E1,2.7E1,4.4E1,4.3E1,5.2E1,3.1E1,4.4E1,1.4E1,4E1,2.4E1,2.8E1,2.1E1,1.3E1,1.1E1,1E1,1.4E1,1.1E1,1E1,4.4E1,3.9E1,2.8E1,6.4E1,2.1E1,2E1,1.1E1,2.4E1,1.3E1,2.2E1,3.3E1,2.6E1,1.6E1,1.7E1,4.2E1,1.3E1,7.3E1,6.1E1,1.4E1,1.2E1,2E1,2E1,2.3E1,1.3E1,1.4E1,1.1E1,1.9E1,2.3E1,3.8E1,4.5E1,1E1,1.9E1,5.2E1,5.2E1,2E1,1.1E1,1.2E1,2.3E1,1.4E1,3.7E1,2.1E1,1.2E1,1.3E1,2.2E1,2.1E1,2E1,1E1,2.4E1,1.3E1,2.3E1,2.4E1,3.1E1,1.7E1,5.1E1,2E1,2E1,1.9E1,2.9E1,4E1,3.3E1,2.8E1,1.6E1,1.1E1,2E1,3.3E1,1.5E1,2.8E1,1.2E1,2.8E1,1.1E1,1E1,1.8E1,3.5E1,2.9E1,1.1E1,1E1,1E1,1E1,1E1,1.4E1,1.2E1,1E1,1.7E1,1.6E1,1.4E1,2.8E1,5.7E1,1.6E1,3.7E1,2.4E1,1E1,1E1,1E1,1E1,1.3E1,1E1,1.5E1,2.3E1,3.4E1,1.1E1,2.3E1,2.9E1,3.3E1,1.9E1,1.1E1,1.2E1,1.2E1,2.5E1,1E1,1.1E1,1E1,1.4E1,2.5E1,2.6E1],"tree_param":{"num_deleted":"0","num_feature":"6","num_nodes":"437","size_leaf_vector":"1"}},{"base_weights":[-1.1865583E-2,-3.019338E1,3.968178E1,-4.4807392E1,-1.4969823E1,2.2840366E1,6.151709E1,-5.090702E1,-3.8132385E1,-2.318122E1,-6.6002846E0,1.4831166E1,3.522894E1,5.3631367E1,7.850695E1,-5.3729815E0,-4.7654907E1,-4.3613464E1,-3.5963436E1,-2.8191595E1,-1.859121E1,-1.1622011E1,1.6760604E0,8.112453E0,2.2306055E1,2.844107E1,4.472071E1,4.7897808E1,6.774261E1,7.0469795E1,9.108399E1,-4.894002E1,-4.400342E0,-4.5076823E0,-3.9991264E0,-3.9512646E1,-3.318032E1,-3.1051525E1,-2.3000792E1,-2.0678553E1,-1.2733525E1,-1.5263324E1,-4.378868E0,-4.6621733E0,6.9886327E0,3.2216108E0,1.587899E1,1.713297E1,3.434966E1,2.347552E1,3.7613785E1,3.8239075E1,5.5173573E1,3.9653862E1,5.4628044E1,7.721242E1,5.7864716E1,6.440701E1,7.9487085E0,1.0332721E1,7.782776E1,-5.1585956E0,-4.6943583E0,-4.1232963E0,-3.608488E0,-3.5140335E1,-2.8477192E1,-3.6670334E1,-2.9206753E1,-2.6239302E1,-1.8400635E1,-2.477767E1,-1.7639904E1,-1.678756E1,-9.258719E0,-2.1437843E1,-1.2596755E1,-9.771548E0,-7.55678E-1,-9.391282E0,-1.3486006E0,3.0323308E0,1.3295848E1,-3.8255181E0,8.222645E0,1.0953593E1,2.1136892E1,6.9638295E0,1.929294E1,3.9110825E1,2.8120121E1,1.8017525E1,2.7948603E1,3.3285248E1,4.9744545E1,3.434052E1,4.5474354E1,6.429972E0,4.5644603E0,3.4173813E1,4.5432835E1,4.9562634E1,6.079348E1,7.146624E1,9.352622E0,4.363697E0,6.1198853E1,6.056498E1,7.72051E0,6.5616336E0,8.405303E0,-3.6849045E1,-3.0778852E0,-2.9677062E0,-2.1050792E0,-3.9881597E0,-3.1781437E0,-3.0624336E1,-2.4410539E0,-3.0283263E0,-2.4194872E0,-1.939204E1,-1.0092648E0,-2.6833637E1,-2.1644673E0,-1.952426E1,-1.2550683E1,-1.3181272E1,-2.0240803E0,-1.2971561E0,-5.5092177E0,-2.5740347E1,-1.6856926E1,-1.5879156E1,-8.75092E0,-1.5603746E0,-7.9228535E0,-4.421707E0,2.5219347E0,-1.2289301E1,-5.9246593E0,-4.8444605E0,2.5132227E0,6.4366025E-1,9.833081E0,1.735821E1,6.971468E0,-1.1482411E1,-1.3384465E0,2.9324198E0,9.78111E0,1.617767E0,1.2651681E1,2.6209312E1,1.4782247E1,2.559323E0,9.467257E0,1.5574933E1,2.3633846E1,3.150877E1,4.2838697E0,1.499468E0,2.967025E1,1.503811E1,2.4097559E1,2.534838E1,3.5350456E0,2.8753231E1,3.8088849E0,3.354403E0,5.5456247E0,3.0281422E0,3.8607857E0,3.823096E0,4.897614E0,3.0025696E1,4.2654815E0,4.0347514E0,5.1087337E0,4.4946933E0,5.5343468E1,5.50498E0,6.592922E0,4.9804606E0,7.4361176E0,5.5235963E0,6.7854333E0,5.4185057E0,6.425384E0,-3.9466057E0,-3.4327397E0,-3.3214645E1,-2.7808862E0,-2.2187445E0,-1.7257824E0,-2.875395E0,-2.3608527E0,-2.2282196E1,-1.7817303E1,-1.6687414E1,-9.81763E0,-1.524017E0,-7.974891E-1,-1.50654E0,-8.863109E0,-2.9136312E0,-2.1063377E1,-1.9078861E0,-1.2944416E0,-1.7209295E1,-1.0838917E1,-1.1166251E1,-5.1236167E0,-9.363279E0,-3.6058046E-2,-7.8993487E0,-9.192222E-1,5.283208E-1,9.691745E-1,-1.3968153E1,-5.525043E-1,-7.354439E0,-2.1694255E-1,-7.369981E0,-1.851861E0,-2.5945944E-1,5.034074E0,-1.2011888E0,5.6392293E0,7.228141E0,1.4887713E0,1.2548476E1,2.4340904E0,8.884813E0,1.7665945E-1,-1.5075569E0,-7.2040005E0,-5.618035E0,1.970704E0,-1.2618905E0,6.761535E0,7.4276175E0,1.3447661E1,-1.13413565E-1,4.2348558E-1,9.717837E0,1.849587E1,1.7955873E1,3.0304531E1,1.0652293E0,1.6580917E1,-3.5484582E-1,7.438712E-1,7.238784E-2,1.1635004E1,1.2904349E1,2.0761044E1,2.0796345E1,2.817715E0,2.7144263E0,3.975399E0,2.2352164E0,3.1589081E0,1.0771165E1,1.7233719E1,2.7597225E0,1.9093697E0,2.235196E0,2.8465626E0,2.4773622E0,3.2705693E0,2.1486301E1,3.339506E0,5.991417E0,4.884317E0,-3.6156921E0,-2.9561474E0,-2.5635397E0,-1.8615593E0,-1.8782732E0,-1.5058274E0,-1.9077829E0,-1.2093965E0,-1.1218928E0,-5.800004E-1,-5.3056806E-1,2.1162467E-1,-1.0249913E0,-5.9141296E-1,-2.4480512E0,-1.7105645E0,-1.9875824E1,-1.3839801E1,-1.2487068E0,-8.8628244E-1,-1.4993429E1,-7.3451357E0,-7.172523E0,-3.0462162E0,-1.16334715E1,-6.2784214E0,-9.2884475E-1,-4.9537975E-1,1.9189179E0,-5.921671E-1,-8.4976315E-1,5.2704567E-1,-1.5822715E0,-8.1462145E-1,-4.9233994E-1,-8.3237886E-1,-9.500227E0,-3.7542877E-1,1.9119179E-2,-4.1800672E-1,-2.588788E-1,2.985723E-1,3.5951275E-1,6.6273534E-1,-3.533788E0,2.3653524E0,9.563641E-1,1.1170907E-1,5.2138364E-1,1.0050291E0,7.5736475E-1,1.5247344E0,5.663294E-1,1.0825692E0,-1.128014E0,-2.1023948E-1,-9.3294E0,-4.058879E-1,-1.2416638E0,4.3540325E0,-4.1101018E-1,3.1155834E-1,4.270587E-1,9.8820335E-1,4.7906756E0,1.0117444E1,9.807286E-1,1.496848E0,6.97405E0,1.1928971E1,1.382243E0,2.7859244E0,1.301885E0,2.0227838E0,2.0942328E0,3.2648587E0,1.342205E0,1.8799794E0,7.5794524E-1,1.3102403E0,9.950538E0,1.6840899E1,1.5187231E0,2.210261E0,1.7161789E0,2.350836E1,8.372946E-1,1.2134737E0,1.1561668E0,1.9238037E0,2.6571827E0,1.6351028E1,-2.3183668E0,-1.7830454E0,-1.5278586E0,-1.1653788E0,-1.8669144E0,-1.2256913E0,-8.9522564E-1,-4.929537E-1,-1.0217379E0,-5.478109E-1,-5.22191E-1,-1.8800348E-1,-1.3312299E0,-7.804603E-1,-7.9774E-1,-2.923589E-1,-1.2909089E-1,4.533132E-1,-3.0643308E-1,7.492772E-2,-1.1295456E0,-6.67814E-1,-6.2753576E-1,-2.0648424E-1,5.45245E-2,5.403592E-1,-1.197063E0,-5.828648E-1,-3.5222512E-1,2.1142618E-1,-2.7311462E-1,1.3745111E-1,5.26831E-1,1.04914926E-1,3.7842414E-1,7.758982E-1,7.2582316E-1,1.1621348E0,3.981633E-1,9.1053885E-1,9.687683E-1,1.355416E0,5.629391E-1,1.2212552E0,1.37402E0,1.844311E0,2.0384402E0,2.6569216E0,9.6285266E-1,2.078153E0],"categories":[],"categories_nodes":[],"categories_segments":[],"categories_sizes":[],"default_left":[0,0,0,0,0,0,0,0,0,0,0,0,0,0,0,0,0,0,0,0,0,0,0,0,0,0,0,0,0,0,0,0,0,0,0,0,0,0,0,0,0,0,0,0,0,0,0,0,0,0,0,0,0,0,0,0,0,0,0,0,0,0,0,0,0,0,0,0,0,0,0,0,0,0,0,0,0,0,0,0,0,0,0,0,0,0,0,0,0,0,0,0,0,0,0,0,0,0,0,0,0,0,0,0,0,0,0,0,0,0,0,0,0,0,0,0,0,0,0,0,0,0,0,0,0,0,0,0,0,0,0,0,0,0,0,0,0,0,0,0,0,0,0,0,0,0,0,0,0,0,0,0,0,0,0,0,0,0,0,0,0,0,0,0,0,0,0,0,0,0,0,0,0,0,0,0,0,0,0,0,0,0,0,0,0,0,0,0,0,0,0,0,0,0,0,0,0,0,0,0,0,0,0,0,0,0,0,0,0,0,0,0,0,0,0,0,0,0,0,0,0,0,0,0,0,0,0,0,0,0,0,0,0,0,0,0,0,0,0,0,0,0,0,0,0,0,0,0,0,0,0,0,0,0,0,0,0,0,0,0,0,0,0,0,0,0,0,0,0,0,0,0,0,0,0,0,0,0,0,0,0,0,0,0,0,0,0,0,0,0,0,0,0,0,0,0,0,0,0,0,0,0,0,0,0,0,0,0,0,0,0,0,0,0,0,0,0,0,0,0,0,0,0,0,0,0,0,0,0,0,0,0,0,0,0,0,0,0,0,0,0,0,0,0,0,0,0,0,0,0,0,0,0,0,0,0,0,0,0,0,0,0,0,0,0,0,0,0,0,0,0,0,0,0,0,0,0,0,0,0,0,0,0,0,0,0,0,0,0,0,0,0,0,0,0,0,0,0,0,0,0,0,0,0,0,0,0,0,0,0,0,0,0,0,0,0,0],"id":4,"left_children":[1,3,5,7,9,11,13,15,17,19,21,23,25,27,29,-1,31,33,35,37,39,41,43,45,47,49,51,53,55,57,59,61,-1,-1,-1,63,65,67,69,71,73,75,77,79,81,83,85,87,89,91,93,95,97,99,101,103,105,107,-1,-1,109,-1,-1,-1,-1,111,113,115,117,119,121,123,125,127,129,131,133,135,137,139,141,143,145,147,149,151,153,155,157,159,161,163,165,167,169,171,173,-1,-1,175,177,179,181,183,-1,-1,185,187,-1,-1,-1,189,-1,-1,-1,-1,-1,191,-1,-1,-1,193,-1,195,-1,197,199,201,-1,-1,203,205,207,209,211,-1,213,215,217,219,221,223,225,227,229,231,233,235,237,239,241,243,245,247,249,251,253,255,257,259,-1,-1,261,263,265,267,-1,269,-1,-1,-1,-1,-1,-1,-1,271,-1,-1,-1,-1,273,-1,-1,-1,-1,-1,-1,-1,-1,-1,-1,275,-1,-1,-1,-1,-1,277,279,281,283,-1,-1,285,287,-1,289,-1,-1,291,293,295,297,299,-1,301,303,305,-1,307,-1,309,-1,311,313,315,317,319,321,323,-1,325,-1,327,-1,-1,329,331,333,335,337,339,341,-1,-1,343,345,347,349,-1,351,-1,-1,-1,353,355,357,359,-1,-1,-1,-1,-1,361,363,-1,-1,-1,-1,-1,-1,365,-1,-1,-1,-1,-1,-1,-1,-1,-1,-1,-1,-1,-1,-1,-1,-1,-1,-1,-1,367,369,-1,-1,371,373,375,377,379,381,-1,-1,383,-1,385,-1,-1,-1,-1,-1,387,-1,-1,-1,-1,-1,-1,-1,389,391,-1,-1,-1,-1,-1,-1,-1,-1,-1,-1,393,395,397,399,-1,-1,-1,-1,401,403,-1,-1,405,407,-1,-1,-1,-1,-1,-1,-1,-1,-1,-1,409,411,-1,-1,-1,413,-1,-1,-1,-1,-1,415,-1,-1,-1,-1,-1,-1,-1,-1,-1,-1,-1,-1,-1,-1,-1,-1,-1,-1,-1,-1,-1,-1,-1,-1,-1,-1,-1,-1,-1,-1,-1,-1,-1,-1,-1,-1,-1,-1,-1,-1,-1,-1,-1,-1,-1,-1,-1,-1,-1,-1],"loss_changes":[1.0736605E7,1.131961E6,1.422107E6,1.03796E5,1.7131738E5,2.1647725E5,2.21541E5,9.86925E3,1.32205E4,2.8429938E4,5.1431105E4,6.661381E4,5.4008125E4,9.012275E4,4.7358E4,0E0,8.40375E2,4.1875E1,7.54925E3,8.193031E3,7.8065156E3,2.0241562E4,1.579123E4,2.661425E4,3.8599844E4,2.2027438E4,2.2009812E4,4.3552125E4,2.64945E4,1.286675E4,2.5067375E4,2.4125E1,0E0,0E0,0E0,8.060625E2,3.691375E3,2.9093125E3,2.7499688E3,5.6039688E3,2.323875E3,8.159922E3,5.053141E3,3.3407676E3,6.3227607E3,1.5256402E4,6.786633E3,9.5741875E3,4.4762656E3,7.5286562E3,7.533203E3,4.7285938E3,8.7180625E3,1.0291625E4,1.1072E4,8.8771875E3,5.204E3,5.2565625E3,0E0,0E0,2.23875E3,0E0,0E0,0E0,0E0,1.5114688E3,7.564375E2,1.6116406E2,1.2513438E3,3.0075E2,5.702832E2,7.332344E2,2.4593047E3,7.2947266E2,1.2789033E3,2.5816406E3,4.4055273E3,9.9769727E2,1.8856199E3,8.112676E2,1.7267252E3,2.560342E3,2.3967969E3,3.4124155E3,2.057209E3,2.230666E3,3.8029102E3,8.468528E2,5.5066875E3,1.5975156E3,1.2845234E3,2.3729766E3,2.5490469E3,1.7784688E3,2.2112031E3,1.4118125E3,2.9953125E1,0E0,0E0,5.6145625E3,3.0859062E3,4.2631875E3,2.2406875E3,4.2605625E3,0E0,0E0,1.4905312E3,2.839375E2,0E0,0E0,0E0,2.95E2,0E0,0E0,0E0,0E0,0E0,7.026719E2,0E0,0E0,0E0,1.0630664E2,0E0,5.8148438E1,0E0,5.6335156E2,7.2933594E2,3.2867578E2,0E0,0E0,6.5787463E2,6.092656E2,4.2242383E2,1.1073828E3,1.4146602E3,0E0,8.7894824E2,8.940875E2,1.1812678E3,4.565664E2,2.0954956E2,4.9272913E2,4.276668E2,1.0942701E3,4.322373E2,1.6760664E3,3.8265308E2,5.678076E2,1.9512382E3,9.561017E2,1.5828105E3,1.7044827E2,1.8777715E3,1.8556328E3,2.6908203E2,9.2046313E2,9.392495E2,2.4882344E3,1.5540312E3,2.8838672E2,0E0,0E0,3.4707812E2,7.887012E2,3.136328E2,6.340625E2,0E0,3.2226562E2,0E0,0E0,0E0,0E0,0E0,0E0,0E0,3.1667266E3,0E0,0E0,0E0,0E0,2.82375E2,0E0,0E0,0E0,0E0,0E0,0E0,0E0,0E0,0E0,0E0,1.2425781E2,0E0,0E0,0E0,0E0,0E0,4.3260156E2,6.610156E1,9.8680664E1,2.1642432E2,0E0,0E0,3.4155154E2,4.980127E1,0E0,6.811328E1,0E0,0E0,1.0816367E3,2.9375977E1,1.3522793E3,2.718423E2,4.031787E2,0E0,1.0537842E2,5.5087384E2,4.357927E2,0E0,2.7059863E2,0E0,2.97146E1,0E0,2.4161694E2,1.5301193E2,2.3450227E2,4.953839E1,7.3213873E2,5.572119E2,1.12454834E2,0E0,3.8129932E2,0E0,1.2001538E2,0E0,0E0,4.3377148E2,1.156864E3,6.025842E2,3.7437646E2,1.9876099E2,8.0977295E2,2.684248E2,0E0,0E0,4.1429053E2,1.3215254E3,2.8291992E1,3.257578E2,0E0,2.8033203E1,0E0,0E0,0E0,1.3873584E2,1.3905527E3,1.578457E2,6.4139453E2,0E0,0E0,0E0,0E0,0E0,2.266211E1,5.3927344E2,0E0,0E0,0E0,0E0,0E0,0E0,6.362637E2,0E0,0E0,0E0,0E0,0E0,0E0,0E0,0E0,0E0,0E0,0E0,0E0,0E0,0E0,0E0,0E0,0E0,0E0,0E0,1.4141797E2,4.211035E1,0E0,0E0,2.6404883E2,1.577417E2,1.19442505E2,8.152377E1,1.4036719E2,1.5337073E2,0E0,0E0,2.1563123E2,0E0,1.8643753E2,0E0,0E0,0E0,0E0,0E0,3.6025635E1,0E0,0E0,0E0,0E0,0E0,0E0,0E0,2.0048474E2,1.9060097E2,0E0,0E0,0E0,0E0,0E0,0E0,0E0,0E0,0E0,0E0,2.538479E2,2.1164323E2,1.3624335E2,1.3044385E2,0E0,0E0,0E0,0E0,1.5884473E2,1.6934863E2,0E0,0E0,2.1248206E2,2.8962402E1,0E0,0E0,0E0,0E0,0E0,0E0,0E0,0E0,0E0,0E0,7.0343555E2,2.4793945E1,0E0,0E0,0E0,1.2998047E1,0E0,0E0,0E0,0E0,0E0,4.849375E2,0E0,0E0,0E0,0E0,0E0,0E0,0E0,0E0,0E0,0E0,0E0,0E0,0E0,0E0,0E0,0E0,0E0,0E0,0E0,0E0,0E0,0E0,0E0,0E0,0E0,0E0,0E0,0E0,0E0,0E0,0E0,0E0,0E0,0E0,0E0,0E0,0E0,0E0,0E0,0E0,0E0,0E0,0E0,0E0,0E0,0E0,0E0,0E0,0E0,0E0],"parents":[2147483647,0,0,1,1,2,2,3,3,4,4,5,5,6,6,7,7,8,8,9,9,10,10,11,11,12,12,13,13,14,14,16,16,17,17,18,18,19,19,20,20,21,21,22,22,23,23,24,24,25,25,26,26,27,27,28,28,29,29,30,30,31,31,35,35,36,36,37,37,38,38,39,39,40,40,41,41,42,42,43,43,44,44,45,45,46,46,47,47,48,48,49,49,50,50,51,51,52,52,53,53,54,54,55,55,56,56,57,57,60,60,65,65,66,66,67,67,68,68,69,69,70,70,71,71,72,72,73,73,74,74,75,75,76,76,77,